20190318:
Sonosite 64x64
layer_defs.push({type:'conv', sx:5, filters:16, stride:1, pad:2, activation:'relu'});
layer_defs.push({type:'pool', sx:2, stride:2})
layer_defs.push({type:'conv', sx:5, filters:20, stride:1, pad:2, activation:'relu'});
layer_defs.push({type:'pool', sx:2, stride:2});
layer_defs.push({type:'conv', sx:5, filters:20, stride:1, pad:2, activation:'relu'});
layer_defs.push({type:'pool', sx:2, stride:2});
layer_defs.push({type:'softmax', num_classes:organ.length});

{"layers":[{"out_depth":1,"out_sx":64,"out_sy":64,"layer_type":"input"},{"sx":5,"sy":5,"stride":1,"in_depth":1,"out_depth":16,"out_sx":64,"out_sy":64,"layer_type":"conv","l1_decay_mul":0,"l2_decay_mul":1,"pad":2,"filters":[{"sx":5,"sy":5,"depth":1,"w":{"0":-0.1583357303286143,"1":-0.18818889724015866,"2":0.14954574502395027,"3":0.15501460246570833,"4":0.3533011409513958,"5":0.07602008024346144,"6":0.012558465526079286,"7":-0.02956553812222735,"8":-0.02888068485314882,"9":-0.3535667996890619,"10":-0.18607958652839213,"11":0.05081855195219398,"12":-0.2111425003073869,"13":0.1733089614141553,"14":0.010265308285424336,"15":-0.1844774563036922,"16":0.08545240832548388,"17":-0.20885655197828554,"18":0.1575356875397674,"19":0.19744304836584262,"20":-0.1365373777415038,"21":0.0036428268309613952,"22":-0.1273754427183156,"23":-0.0015732565288371085,"24":-0.020122533761748114}},{"sx":5,"sy":5,"depth":1,"w":{"0":-0.05826050556200254,"1":-0.08726971878286421,"2":-0.06510317897126189,"3":0.04286410812449856,"4":0.14001806416111506,"5":0.02826946234840446,"6":-0.08486244975875386,"7":-0.21474915532314987,"8":0.10907296971724963,"9":-0.05793344431697998,"10":0.15456370358351196,"11":-0.28853963669339544,"12":0.2335836908613015,"13":-0.03513037090828196,"14":0.2606055114290531,"15":-0.23025393380008444,"16":-0.1733895807483779,"17":0.1907400066526444,"18":0.06308302092444563,"19":0.22036372410353336,"20":-0.2169813842354103,"21":-0.22826331597794805,"22":0.2560368076238466,"23":0.10777356269288695,"24":0.1169738227990749}},{"sx":5,"sy":5,"depth":1,"w":{"0":0.12318106586433934,"1":0.054952566421472296,"2":0.17623529526450932,"3":0.009346588528773535,"4":-0.29914867994702493,"5":-0.14368966350345022,"6":0.001215957424742404,"7":-0.36771249773479653,"8":0.03285654518205575,"9":0.1015257957393296,"10":0.09951810134769501,"11":0.18239943559817995,"12":-0.14220399195467476,"13":-0.23146772830608728,"14":0.05497652840407716,"15":0.3557818945380327,"16":-0.06776686123015285,"17":-0.1756402809781276,"18":-0.27130061435850145,"19":0.11352982621254659,"20":-0.11052536986177772,"21":-0.10845122044093988,"22":-0.18847768929126613,"23":-0.32421878253315983,"24":-0.14119636125187682}},{"sx":5,"sy":5,"depth":1,"w":{"0":-0.38338110180518686,"1":0.14936551486112662,"2":0.1852567794744799,"3":0.030950462213130095,"4":-0.2857249250998637,"5":-0.3428017438320312,"6":-0.4194913857649463,"7":0.0799732752069893,"8":-0.18445837039655016,"9":0.29026476279286517,"10":0.14970881251858437,"11":0.00744030148097724,"12":-0.1756091120592218,"13":0.0709997248673116,"14":-0.014818654572369765,"15":-0.06548200282508004,"16":0.06104991917441865,"17":-0.3421504501566146,"18":0.026624353982302378,"19":0.061087146238602966,"20":-0.08344506506033866,"21":-0.4150331768077331,"22":-0.08793599248000102,"23":0.22698221866304052,"24":-0.2135025495388168}},{"sx":5,"sy":5,"depth":1,"w":{"0":0.003557079698269171,"1":-0.48439179213763967,"2":-0.19701176756948913,"3":-0.11125925775766918,"4":-0.14740729396305813,"5":0.015383633662558316,"6":0.03718782365231067,"7":-0.21050487469978482,"8":-0.08414205346362463,"9":0.08411322046731956,"10":0.04222229919630503,"11":-0.3146030615869309,"12":-0.2236505064238711,"13":-0.1428462679091392,"14":-0.13087985169808672,"15":-0.1772455273788211,"16":0.22756884878181632,"17":0.09632917689808983,"18":-0.32464504763290003,"19":0.08084598064723271,"20":-0.2682794148281596,"21":0.018495764894871387,"22":0.05746678379049303,"23":-0.10351519401471244,"24":0.0074116796105623385}},{"sx":5,"sy":5,"depth":1,"w":{"0":-0.5033273389129174,"1":0.2535215628036794,"2":0.3102736397558738,"3":-0.025950097509464833,"4":-0.12283935961872235,"5":-0.20014544635750398,"6":0.008820924525622232,"7":0.1974329565355302,"8":0.1663869622632703,"9":-0.05834631290943693,"10":0.0009818170987627006,"11":-0.08839752218582035,"12":-0.2142048100411786,"13":0.10099792667173264,"14":-0.03656010856089541,"15":0.03979853459779276,"16":0.4597336250293134,"17":0.12222977122486538,"18":-0.12670689181053757,"19":-0.029999893592800163,"20":-0.08618132378368346,"21":-0.2529063689069573,"22":0.027582264413488065,"23":-0.14502840079532936,"24":-0.01418627044612625}},{"sx":5,"sy":5,"depth":1,"w":{"0":-0.07363942755744547,"1":0.006833776035514688,"2":0.13424863806839404,"3":-0.20074339768701088,"4":0.0607334219962972,"5":-0.1664848184951995,"6":0.11705639798848973,"7":-0.26033070520414003,"8":0.04885489604438435,"9":-0.2923043914874248,"10":0.03250475878162218,"11":-0.17606951909733368,"12":0.16562212256565853,"13":0.46046692146038243,"14":-0.41331017458011965,"15":0.2861307212957687,"16":-0.04392948835979633,"17":0.060554857937973224,"18":0.5117226091058688,"19":-0.07208730822835666,"20":0.3175537738408234,"21":-0.10015170588689364,"22":-0.1294106527862182,"23":0.10046815340091858,"24":-0.5165148097223058}},{"sx":5,"sy":5,"depth":1,"w":{"0":0.004833426545593745,"1":-0.02277453667874571,"2":0.2431585498421327,"3":0.06202855102398706,"4":-0.31826593334278463,"5":0.046576289836855654,"6":0.13413519333927335,"7":-0.009007849461231758,"8":-0.03506563016345309,"9":0.026827159661685817,"10":-0.010804916482503873,"11":-0.009416221258864042,"12":0.22017320649246017,"13":-0.04533343391619458,"14":-0.03479263117197139,"15":0.007151735770604189,"16":-0.30137821522195507,"17":-0.049151307492010035,"18":-0.023726118746768585,"19":-0.24873452647515573,"20":0.17225264797025497,"21":0.05530118844232789,"22":-0.328921139632968,"23":-0.052024638238059584,"24":0.06403277092370807}},{"sx":5,"sy":5,"depth":1,"w":{"0":0.12332415206790126,"1":-0.3038227506934462,"2":0.19079189092702387,"3":-0.1803537479473414,"4":-0.1621828781060263,"5":-0.020948029270820515,"6":-0.24873215690541353,"7":0.1108899461344814,"8":-0.05474773861730583,"9":0.3556914805229741,"10":0.04432273488080485,"11":-0.18697197942172708,"12":-0.19444435473525884,"13":0.06509516629241285,"14":0.0675169401426488,"15":0.1894450579810281,"16":-0.08873419399147486,"17":0.1355035175265665,"18":-0.13113560495763438,"19":0.07639658625276552,"20":-0.09659056009918633,"21":-0.179275046752197,"22":0.0954282832690281,"23":-0.0825059416568092,"24":-0.1607401064047569}},{"sx":5,"sy":5,"depth":1,"w":{"0":0.2106689129302671,"1":0.18768953932771448,"2":-0.016317798049777895,"3":-0.2060340265181519,"4":0.024437884268688044,"5":-0.255287764431285,"6":-0.10594882573633739,"7":-0.17253599789768267,"8":-0.17594752442879702,"9":0.06845763278433399,"10":0.18749878008071422,"11":-0.0019365945634833058,"12":-0.24611582843525112,"13":0.055098555327203695,"14":-0.09059111922944227,"15":0.08346370115697377,"16":0.12105358756705605,"17":0.09862276949416034,"18":0.15534093010531788,"19":-0.4072023439724416,"20":0.13723292866078798,"21":-0.18272331473623854,"22":-0.21331411683363427,"23":-0.04712250698546085,"24":-0.06761617252864888}},{"sx":5,"sy":5,"depth":1,"w":{"0":0.06269432900877349,"1":-0.21730116189666762,"2":-0.23469598519549842,"3":-0.14064105405492658,"4":0.05001326482138604,"5":0.18033241675403708,"6":0.16169618389571275,"7":0.05109186217283843,"8":-0.03730904605476973,"9":0.041290190405881964,"10":0.16895853852682952,"11":-0.07649680235626143,"12":0.023071517702224025,"13":-0.04363580040492693,"14":0.04846431679452318,"15":-0.009486832826286373,"16":-0.38067163194343673,"17":-0.0632778851213015,"18":-0.4123980898628621,"19":-0.014649757551065396,"20":0.13719416887751015,"21":0.1741666760812919,"22":-0.015274299783257802,"23":-0.1507974844062627,"24":-0.3198969463482532}},{"sx":5,"sy":5,"depth":1,"w":{"0":0.017564227952804982,"1":-0.09094419866795282,"2":0.06835628770041019,"3":0.0759468282628296,"4":-0.001202184004228267,"5":-0.06655247642023045,"6":-0.05563798003626681,"7":-0.16245164245460844,"8":-0.27582156074369696,"9":-0.09642155170703565,"10":-0.1249093886425992,"11":-0.04994302146736342,"12":-0.030968645837627196,"13":-0.04634191339153233,"14":0.13504610247074983,"15":0.01697520121705485,"16":-0.07926943070580006,"17":0.10246823923725157,"18":0.3319760458433793,"19":0.16421499723505703,"20":0.09637030245935625,"21":-0.13644894855410786,"22":-0.20285262000389218,"23":0.13051318510239393,"24":-0.11405249721980036}},{"sx":5,"sy":5,"depth":1,"w":{"0":-0.1824706778234262,"1":-0.3211516621224906,"2":-0.0673936334601569,"3":-0.17263889511062486,"4":0.041349747272818045,"5":-0.024197854329671108,"6":0.2215206926492358,"7":-0.01754201945052005,"8":0.09114106926848377,"9":-0.24946882002341977,"10":-0.02056427620263891,"11":0.05478179040254854,"12":-0.40796898864395537,"13":-0.11378085286215102,"14":-0.16961639964123537,"15":-0.18945978377095707,"16":-0.09494801303839975,"17":0.04573809347478663,"18":0.07688871356344187,"19":-0.06145626856749597,"20":-0.28201160615148374,"21":0.13642101719029207,"22":-0.2575435166276843,"23":0.04440496974533218,"24":0.08603682864823392}},{"sx":5,"sy":5,"depth":1,"w":{"0":-0.009062716887368014,"1":0.04699745462432786,"2":-0.02167501245605904,"3":-0.24466278420784118,"4":-0.07459232096999169,"5":0.027203408216304393,"6":-0.15743067044449777,"7":-0.11443891503269009,"8":-0.0376498179422064,"9":-0.007524700893285597,"10":0.25029280566985257,"11":0.17296952611107086,"12":0.10828307027544906,"13":0.35462936005184126,"14":0.07367757081575561,"15":-0.11605761784358135,"16":0.383187187941871,"17":-0.2974958675826126,"18":-0.12657749546880814,"19":0.11340237377925355,"20":-0.055801387191481026,"21":-0.31923994242689824,"22":0.026057054413719395,"23":-0.05575340939247623,"24":-0.0350557670770582}},{"sx":5,"sy":5,"depth":1,"w":{"0":0.026635194321339276,"1":0.1438624770325162,"2":0.021833749491184173,"3":0.09800904291059677,"4":-0.10322532241642228,"5":-0.07517523861866189,"6":-0.10251111356212188,"7":0.3798669468060139,"8":-0.014767585108548718,"9":-0.05998763956648661,"10":-0.15380756552505137,"11":0.09172706375463491,"12":0.04943068495435861,"13":-0.2620117314592088,"14":0.1772363098457698,"15":0.009529623383701235,"16":-0.34109987506964057,"17":0.3807080648686123,"18":-0.13871230505804769,"19":-0.1731149913121299,"20":0.12201584987538361,"21":-0.21819713437628488,"22":-0.15042164688220683,"23":0.12588296950358394,"24":-0.0991466694347162}},{"sx":5,"sy":5,"depth":1,"w":{"0":-0.2116873997610466,"1":0.033858546408790005,"2":0.25157057029778235,"3":-0.23723070419283857,"4":0.05026548139619822,"5":-0.19749596539296976,"6":-0.07282362567932597,"7":0.07406189321001135,"8":-0.18746422858243708,"9":0.03687019501473196,"10":-0.11499306015356298,"11":0.029209938282771925,"12":0.13912364530097548,"13":0.11610794483098419,"14":-0.20455443324697226,"15":0.005209291299042681,"16":0.07712796233565865,"17":0.00045234735633884116,"18":0.0489659802152274,"19":0.13042686978065865,"20":-0.191688881673399,"21":0.13728791140462598,"22":-0.2467070274205473,"23":0.29698186736718796,"24":-0.21638863951961299}}],"biases":{"sx":1,"sy":1,"depth":16,"w":{"0":-0.03841297474195105,"1":0.061821344170561635,"2":0.06067225176079586,"3":0.008634590444791984,"4":0.13147791731136285,"5":0.08524840753841284,"6":0.1338640304029538,"7":0.14934214824635586,"8":0.10159415207808159,"9":0.08439371647627705,"10":-0.02878366368040518,"11":0.07127017451360619,"12":0.11483816631109799,"13":0.14577484290078518,"14":0.02357166564040105,"15":0.09983819141309692}}},{"out_depth":16,"out_sx":64,"out_sy":64,"layer_type":"relu"},{"sx":2,"sy":2,"stride":2,"in_depth":16,"out_depth":16,"out_sx":32,"out_sy":32,"layer_type":"pool","pad":0},{"sx":5,"sy":5,"stride":1,"in_depth":16,"out_depth":20,"out_sx":32,"out_sy":32,"layer_type":"conv","l1_decay_mul":0,"l2_decay_mul":1,"pad":2,"filters":[{"sx":5,"sy":5,"depth":16,"w":{"0":-0.06599202083325238,"1":0.006903381514002711,"2":-0.07565859275856432,"3":-0.028757297729075103,"4":0.014393290742185342,"5":-0.01798336334836195,"6":-0.0483415824471346,"7":-0.09757647297090448,"8":0.014154612052125154,"9":-0.04246373314387724,"10":0.0643670559347912,"11":0.025745596105017587,"12":0.05947251437899563,"13":0.021997394731339194,"14":0.016071254772198153,"15":0.02895233674269116,"16":0.05226810955763526,"17":-0.03159438158701174,"18":0.032820398737220396,"19":0.015989532955997945,"20":-0.002628317188333456,"21":-0.004796915501007305,"22":-0.03189815643834143,"23":0.029312133223307283,"24":-0.044111605178170525,"25":0.06477051046082878,"26":-0.0033470336550068818,"27":0.03292015881273112,"28":-0.07494526299314228,"29":0.020999219662426575,"30":0.07922456972384624,"31":-0.06377140043298556,"32":-0.03036732428120015,"33":-0.021927343737415096,"34":0.06616491522599023,"35":-0.007963975258183108,"36":0.02130995884855926,"37":0.14169160986653573,"38":-0.0479241309419352,"39":0.10884740149797854,"40":0.04403893649973968,"41":0.15428929274997888,"42":0.0925991107205166,"43":-0.0228703159146551,"44":0.026122418006018253,"45":0.027784708884074596,"46":0.031082434799567064,"47":0.1336897549855897,"48":-0.0097957203807939,"49":-0.007597461504374023,"50":0.07988616390382489,"51":0.09053223339454833,"52":0.0256608151856273,"53":0.07290171267362305,"54":0.06779893602325023,"55":0.01320688471522725,"56":0.027914789510276324,"57":0.014198357033623816,"58":0.09498037960338392,"59":-0.06843268930221531,"60":-0.0584044464025156,"61":-0.023107821718695323,"62":-0.04228737252207542,"63":-0.054819458142524355,"64":0.05122849387842776,"65":-0.05224588700305571,"66":0.0008824149312296742,"67":-0.025520931493965098,"68":0.0021525283626174737,"69":-0.0853934784642582,"70":-0.04035969676820493,"71":-0.0287351056223001,"72":-0.04029779924059913,"73":-0.15661912150247562,"74":-0.005701681285681897,"75":-0.014776746850734296,"76":-0.0012868521722680796,"77":0.10594512770659714,"78":0.07166713730777438,"79":-0.03191280590101927,"80":0.021731567338100385,"81":-0.05135793639704983,"82":-0.017254736085987054,"83":0.013366574757770991,"84":0.01953772702350634,"85":0.025089859966602415,"86":-0.03518244345693837,"87":0.03206853630198711,"88":0.054787060805741396,"89":-0.0688117606960834,"90":-0.03232165600703867,"91":0.007917246564184096,"92":0.023868648923556304,"93":0.009756335333818034,"94":0.027264736113136512,"95":-0.041499269649183074,"96":-0.06652215927808994,"97":-0.035211837430336575,"98":0.025329350170614863,"99":-0.011774675161942565,"100":-0.010223420935395607,"101":-0.03682616097052328,"102":-0.007802461766574904,"103":-0.014714316287516188,"104":-0.04987543321600184,"105":-0.004567985171581182,"106":0.031115384790904692,"107":0.07408396171836512,"108":0.011727146246036255,"109":-0.061523985199454394,"110":-0.0803028661123643,"111":-0.08088722087479586,"112":0.020533131334142994,"113":-0.007589680148858463,"114":0.03379394590866377,"115":-0.023851635104023102,"116":0.012364603438077404,"117":-0.044835508538546814,"118":-0.07009277537077854,"119":-0.023391073278517027,"120":-0.08104896141448907,"121":0.008750341797445084,"122":0.024620471272865378,"123":-0.07339789618446287,"124":-0.10511710926473562,"125":-0.040336155048031785,"126":-0.015801725127935186,"127":-0.07436880498533521,"128":-0.009541395012366654,"129":-0.007445552944877657,"130":0.0038170311639385197,"131":-0.05652718680907945,"132":-0.03230145774077112,"133":-0.003966159289101068,"134":0.01762402118754299,"135":0.014233442523428192,"136":-0.07391417169457233,"137":-0.12366542055351654,"138":0.014968241011269385,"139":-0.05629287139088609,"140":0.01351306117046604,"141":-0.020138599888422863,"142":0.0496106911522524,"143":-0.05520134793688259,"144":0.029543019987631536,"145":0.053606580142435745,"146":0.058609522797013966,"147":-0.02148693680223139,"148":-0.09122464770748363,"149":0.0432548552136816,"150":-0.08924651338497346,"151":-0.02133003309396804,"152":-0.011314939353905889,"153":-0.030667719821076852,"154":-0.05884786809579684,"155":-0.11640382538323557,"156":-0.06803415260473195,"157":-0.01453627553842746,"158":-0.027779154564993015,"159":-0.01650908300585727,"160":-0.003985800003272073,"161":-0.010103386554730451,"162":-0.01195174897049956,"163":-0.017477031708362414,"164":-0.05426922868965107,"165":0.04148579772911977,"166":-0.004214769521647865,"167":0.05824816413146753,"168":-0.008385539350667862,"169":0.04021360298762242,"170":0.010654645560070064,"171":0.02140895675504563,"172":-0.12813361273024315,"173":-0.02939373612558959,"174":-0.014661430380244731,"175":-0.10054566899077609,"176":-0.06130619386468125,"177":-0.11119519623300143,"178":0.006764743723701622,"179":-0.03595059592610264,"180":-0.04214815149316736,"181":0.026244913546121323,"182":-0.011357501552215484,"183":-0.028456267707191483,"184":-0.11301226904302097,"185":0.0278151352036061,"186":-0.022804638390217815,"187":-0.09092157607232698,"188":-0.027638361385519967,"189":-0.009719166637402948,"190":-0.0130163399932109,"191":-0.12269285523149696,"192":-0.03327012699125057,"193":-0.030019348614132215,"194":-0.04194352220791898,"195":0.024194343484791873,"196":-0.011710678731406137,"197":-0.08726172373470903,"198":-0.14268142836467923,"199":0.01013778791808328,"200":-0.09794239784260982,"201":-0.024671283197036063,"202":0.024895308592677256,"203":-0.0842078901240225,"204":-0.04145739675019428,"205":0.02524126048665532,"206":-0.1302354165228637,"207":-0.18674433549238245,"208":0.051824309849408244,"209":0.05071753702088792,"210":-0.0684167627422606,"211":-0.033881816068891485,"212":-0.07821325918968199,"213":-0.03155551688461466,"214":-0.06943400712776339,"215":-0.10371463631688191,"216":0.08336109183927504,"217":-0.05652929613339976,"218":-0.03213545053915179,"219":-0.0393816845953443,"220":-0.022187535029911675,"221":-0.004747808532867743,"222":0.01824373559727,"223":-0.0508899972684899,"224":0.02374076633373155,"225":0.014427329325365062,"226":-0.015403930084089164,"227":-0.02983540580682591,"228":-0.033241279949158695,"229":-0.042200238621863714,"230":-0.01589961810916864,"231":-0.015331488280712213,"232":0.0003999494464994439,"233":-0.006456220862773063,"234":0.04515893310695244,"235":-0.038853381521936896,"236":0.02392269752175834,"237":-0.04850089822799057,"238":-0.08318055439894885,"239":0.09625079474327485,"240":0.03408854693266702,"241":-0.051397530372484616,"242":-0.023166555826720805,"243":0.00524927621643228,"244":-0.031409422510524934,"245":-0.007709051548678517,"246":0.06255540275448253,"247":0.03209195587510392,"248":-0.030938872653050058,"249":-0.04751991282155741,"250":-0.017551019647565686,"251":-0.004068928621196271,"252":-0.07010718208761689,"253":0.02104661938758923,"254":-0.0662528154028735,"255":0.09592923726469654,"256":0.029631224884726727,"257":0.0019286039154846166,"258":-0.005010391671217844,"259":0.08202540589973643,"260":-0.015164547003375837,"261":0.018187678845772496,"262":-0.023292348247126445,"263":0.06771749472354437,"264":-0.05673457639308601,"265":0.047000937458511666,"266":0.017048347274334786,"267":-0.021037363882486053,"268":0.09942712861032575,"269":0.025944817910725382,"270":0.07329583147045153,"271":-0.056288186295735655,"272":-0.06288173437153961,"273":-0.015826678172376454,"274":-0.005566882132699307,"275":-0.051936100431107336,"276":-0.0805413935190969,"277":-0.09913290529905011,"278":-0.06019511645136854,"279":-0.04550144914503026,"280":0.017219055257260255,"281":-0.030465103565122865,"282":-0.017590221964662724,"283":-0.007883982211468275,"284":0.04237412154335873,"285":-0.023108013353232176,"286":0.027856683073840604,"287":-0.081114817664166,"288":-0.03265380676543292,"289":-0.139933849864588,"290":-0.025641942117564584,"291":-0.02093295198438699,"292":-0.044886481669022774,"293":-0.01656004677041252,"294":-0.10144350827417332,"295":-0.011977293781302889,"296":0.010519954060715285,"297":0.012268294307048379,"298":0.023352626602707365,"299":-0.07179636815041744,"300":0.019408237047827397,"301":0.014167144150810962,"302":-0.08919913288345994,"303":-0.052288334646539716,"304":-0.006252267799137523,"305":-0.07420356441709386,"306":-0.02492762615670898,"307":-0.0051229504070391275,"308":-0.09288020953339542,"309":-0.018616444074168348,"310":-0.10067300389851602,"311":-0.03313279424912653,"312":-0.004250151055605317,"313":-0.022785499105929082,"314":-0.05605066712665411,"315":-0.0741025696691852,"316":-0.09091787730710163,"317":0.009074437887202415,"318":-0.01604840616572636,"319":0.08015722172816218,"320":-0.011636525190393068,"321":-0.05304711963890852,"322":-0.02683261876957454,"323":0.027995659052044354,"324":-0.061130891796198544,"325":0.00519987260063543,"326":-0.02313473003495693,"327":0.07907435815673518,"328":-0.06483549241930954,"329":-0.02551128694042097,"330":-0.0037733171815852763,"331":-0.005626131471804924,"332":-0.0315263143563706,"333":-0.0474755457653577,"334":-0.011383912093140753,"335":0.007858493046845367,"336":0.02968841805790449,"337":-0.01871214310039604,"338":0.006408752718750279,"339":-0.03254980088241082,"340":-0.016447619025682144,"341":-0.16711392253839344,"342":0.01716216686249659,"343":0.042296314803200424,"344":-0.005103195452293994,"345":-0.002542116138792566,"346":0.011150847385626932,"347":0.015686107290722884,"348":-0.040812040283092675,"349":-0.06443552789482876,"350":0.08336542716857491,"351":-0.08247507895232536,"352":0.03158338895117245,"353":-0.05505045425570841,"354":-0.013710589622544733,"355":0.009559511482504885,"356":-0.09827131794777061,"357":-0.010166491687438993,"358":0.05418896475795858,"359":0.040949340524308986,"360":-0.04977790914046347,"361":-0.021758598192561453,"362":-0.06419609637214513,"363":-0.04500652071339261,"364":-0.009223761250777581,"365":-0.053573330481217735,"366":0.03351816792262949,"367":-0.11161974675557473,"368":0.0015050615649592008,"369":0.020663347012239517,"370":0.05386152661776956,"371":-0.021285731040422164,"372":-0.07635691491225162,"373":0.012719645208212185,"374":-0.009524417532016253,"375":-0.09684630167091995,"376":-0.07088996916928318,"377":-0.04121435422551162,"378":0.0036848232080714475,"379":-0.09402084298652762,"380":0.07318268152068906,"381":-0.0074255107772574136,"382":-0.005671968915891822,"383":-0.02547336247286183,"384":-0.012087432695103864,"385":0.007832089707807733,"386":-0.013293938648054409,"387":-0.033602220876661586,"388":-0.09474787390699385,"389":-0.1087726750532946,"390":-0.12450228412207658,"391":-0.013597775828698741,"392":0.03196556755517538,"393":0.02176002106233757,"394":-0.030010807046964783,"395":-0.0688163375201329,"396":-0.06113690840635456,"397":-0.09036641203907927,"398":-0.04204928864206141,"399":0.05510414002680821}},{"sx":5,"sy":5,"depth":16,"w":{"0":-0.08748207727660409,"1":-0.08100065173792412,"2":0.042828026430939144,"3":-0.05183617119135071,"4":0.04578525101302043,"5":0.08036214441819446,"6":0.014484039013350259,"7":0.031086177004755952,"8":0.0036295615311193142,"9":0.03419079996399396,"10":0.022271275877650435,"11":-0.006213411356246359,"12":0.004200428414033297,"13":0.01287304557425341,"14":-0.03575678679076544,"15":-0.1194775532927487,"16":-0.04875374624090288,"17":0.057172100461659985,"18":-0.0387227396759163,"19":-0.03750316666693998,"20":0.05621465080027678,"21":-0.04511460578804304,"22":-0.17109998045141267,"23":0.05597829442515725,"24":-0.03945375337021421,"25":0.021395046035067478,"26":0.010213918635266873,"27":0.008638638792891718,"28":0.014021185152378124,"29":0.035936735469865325,"30":0.005863499599036125,"31":0.0010203343059378086,"32":0.03768430415334741,"33":-0.08233472443371255,"34":0.017807970041655075,"35":0.04880762699314388,"36":0.020950865795121957,"37":-0.12542313868476043,"38":0.04390867856427724,"39":0.061497493865041955,"40":0.017739452769642713,"41":0.07726990423383413,"42":0.11311868243796684,"43":-0.044345125618796166,"44":0.021749301898664947,"45":-0.011062977931057866,"46":-0.011589122746045141,"47":-0.024186367570961344,"48":-0.015551185608612569,"49":-0.07677291469306685,"50":-0.004947489409158657,"51":0.044915409981534433,"52":0.05997091104233789,"53":-0.03268650811334601,"54":-0.08393328744560569,"55":0.03233969057302532,"56":0.06480752893333776,"57":0.11593113217809795,"58":0.024716363007554164,"59":-0.08792779638005492,"60":0.026666542471314763,"61":-0.09136371334343016,"62":-0.005061541664486014,"63":0.02972265899502282,"64":0.08484725448451821,"65":0.007465044393107007,"66":0.059187007531581334,"67":-0.006197942925217422,"68":0.04509274438114726,"69":-0.10043947022166334,"70":-0.04169092245311079,"71":-0.018535554834512122,"72":0.02016445712863192,"73":-0.04542897016763787,"74":0.060319051523191294,"75":-0.02474264475969588,"76":0.12387036007449924,"77":-0.08262199505447501,"78":-0.05975950451844675,"79":0.12389262485838555,"80":-0.032033376342610866,"81":-0.03730533875970611,"82":0.07195754135265808,"83":0.06651041894178476,"84":0.004476226630956795,"85":-0.058085283650359545,"86":0.013731373169181237,"87":-0.019355994092175675,"88":-0.008143368411227724,"89":0.050334940896950106,"90":-0.04167404346908668,"91":0.023919025501253098,"92":0.01558046826285449,"93":0.02646617521676595,"94":0.07579862382652598,"95":-0.06361749402484303,"96":-0.062247529769541114,"97":-0.05748435295886527,"98":0.034525993869745954,"99":-0.013274018948333521,"100":-0.048717044526288306,"101":-0.11900337617462081,"102":-0.02272924597997731,"103":-0.022793561011858445,"104":0.010400456158928907,"105":0.08883776612288383,"106":0.045863537473706306,"107":-0.012364255151436625,"108":-0.014599755734946885,"109":-0.029114941729887635,"110":-0.08962117510154402,"111":0.05382111089699221,"112":-0.052971949784470285,"113":-0.09219271661660344,"114":0.032327294572116916,"115":-0.04325788885628964,"116":0.0551665982036546,"117":-0.03600896242529936,"118":-0.0828299188475308,"119":0.03911023051127407,"120":-0.02476209717007501,"121":0.03142282557086976,"122":-0.024906955463284537,"123":-0.006613688785441265,"124":0.009290845897518312,"125":-0.004578650900389861,"126":-0.020939443084001783,"127":0.01624696588451236,"128":-0.010219285683527042,"129":-0.04173780645361281,"130":0.08666434726474935,"131":0.061057492884318415,"132":-0.0438295546661096,"133":-0.04481150521236434,"134":-0.05176643415189779,"135":0.03811607083970439,"136":0.08899737940196172,"137":0.07583311147596149,"138":0.03163894131943419,"139":-0.047649796181746605,"140":-0.034719088074642614,"141":0.03516591820841852,"142":0.02339501913990569,"143":0.00917580022444655,"144":-0.005074468164654825,"145":-0.022772631737770506,"146":-0.008249230980016484,"147":0.14775479930078536,"148":0.05020959134050409,"149":-0.10256824370159638,"150":-0.09477022276053652,"151":0.058483168187690816,"152":0.1469871025809385,"153":0.0885297708700924,"154":-0.0022879156506915724,"155":0.05600925258294486,"156":0.02985312561784156,"157":-0.06937912645236038,"158":-0.006617879166191379,"159":0.028231412914498624,"160":0.008177329099189258,"161":-0.05417993573695336,"162":-0.029634695100089793,"163":0.023724934724448313,"164":-0.029497110525531146,"165":-0.004556177591473714,"166":-0.0001662597272119626,"167":0.11209424360317984,"168":-0.06673398701224233,"169":0.04989779953526958,"170":-0.03333456722325135,"171":-0.007819521354371204,"172":-0.016391049096860982,"173":-0.05443327598126718,"174":0.13214171285091145,"175":-0.11444812764103515,"176":-0.025650522317101937,"177":0.0063950868382715575,"178":-0.05994372896167942,"179":-0.05172629353102272,"180":-0.003219841306073827,"181":-0.05850132031090939,"182":0.0008857755366988386,"183":0.03685538146711542,"184":0.005608450458547696,"185":0.053845646674442436,"186":0.00279065180747134,"187":-0.03136773036060606,"188":0.023379131163615702,"189":0.037254434634252334,"190":0.10308388815037234,"191":-0.043879409463748624,"192":0.016287895879905024,"193":-0.022233493301974116,"194":0.002111552382446644,"195":0.04333782923345445,"196":0.024249026771147094,"197":-0.03636113476032376,"198":-0.06468775974757973,"199":0.08888342627690597,"200":0.07808212164215074,"201":-0.05266482742794495,"202":-0.023030992254386314,"203":0.027566307259067026,"204":-0.06343380821823201,"205":-0.05276386630334249,"206":-0.006418115904424244,"207":-0.06554430143071133,"208":-0.00008004118633161995,"209":0.04021189729712662,"210":-0.015603614368276038,"211":-0.08577961531578102,"212":0.0353467884416374,"213":-0.05028434112462123,"214":0.055047482969217194,"215":-0.006432739541580094,"216":-0.08741198554571199,"217":0.11149266279635872,"218":0.006430327421854142,"219":-0.055128321235185275,"220":0.06430779200485719,"221":0.010349069849224523,"222":0.01582442130024861,"223":-0.046724565955472835,"224":-0.002917993969283994,"225":0.04933367043888524,"226":0.10058604361774198,"227":-0.014445716029196316,"228":-0.0007519745221267625,"229":0.02029425138869453,"230":-0.11462066068529374,"231":-0.00021092140659636203,"232":0.0540986749553862,"233":0.015391839586667126,"234":-0.0002887922267829949,"235":0.12269656940054105,"236":-0.0011624161676498483,"237":-0.06661345396279497,"238":-0.09309427507544242,"239":0.0099943123844504,"240":-0.0032427874998640603,"241":-0.04763064869517798,"242":0.07895615678034487,"243":-0.0011002452906025018,"244":0.08286023671317272,"245":-0.07471505853777281,"246":-0.0077189964854699694,"247":-0.06327648894498429,"248":0.027097923040187693,"249":0.019603827975126845,"250":0.038249589600570275,"251":-0.03343780502256558,"252":-0.12019150265032713,"253":-0.16817937915894704,"254":-0.008946186185988164,"255":0.028618729143540866,"256":0.06414026438526874,"257":-0.02684374320114023,"258":0.011892741317513207,"259":-0.0669061773797737,"260":-0.05836213237373518,"261":0.09924178055865407,"262":-0.05631090872565313,"263":0.000464234178277265,"264":0.044641318393309454,"265":-0.02911358510969224,"266":0.08127039540541355,"267":0.03206867196943465,"268":0.0199723509414695,"269":-0.015255419915086154,"270":0.06626916624198259,"271":0.14234686804562643,"272":-0.00009403553881361745,"273":-0.005098424449912933,"274":-0.04932186720023958,"275":0.005036286316678491,"276":0.02093279276569885,"277":-0.10439937382157065,"278":0.01903960482978628,"279":0.028894245692248598,"280":-0.019234988295012013,"281":-0.06741191201928311,"282":0.018608808576107395,"283":-0.04164681431907312,"284":0.0009066965299908433,"285":-0.041579994846085086,"286":0.03309368082479427,"287":0.06586345515819,"288":-0.00950075724627966,"289":0.10282595164282599,"290":0.0022219480512150076,"291":0.010052700956129399,"292":-0.0943772268072926,"293":0.07577164340583935,"294":0.023145254908951904,"295":-0.0178141976979774,"296":-0.024465282895571705,"297":0.007789345922306886,"298":0.08929464721502134,"299":0.11046938743117336,"300":0.03173971458854966,"301":-0.014315431844725687,"302":0.020390123882917926,"303":-0.007446210452108785,"304":0.03158492731547861,"305":0.09027848635319052,"306":-0.016289979633243582,"307":0.04850057022624384,"308":-0.02953631131301655,"309":0.06065684519659142,"310":0.006663589985822116,"311":-0.011072756426019424,"312":0.004531626523022681,"313":0.1074326168805699,"314":-0.03361903826346612,"315":0.08031414982973005,"316":0.04833389721113102,"317":-0.003553686354820004,"318":-0.002256224687918984,"319":0.10642296956791082,"320":0.045677882057762596,"321":-0.033185986204508286,"322":-0.07462447319604762,"323":-0.03922587578257446,"324":-0.02387631318500023,"325":-0.059340123628182875,"326":-0.00542127167434465,"327":-0.03828515294114628,"328":-0.03366855678583013,"329":0.0529709921137716,"330":0.01374251273373224,"331":-0.02044305609499938,"332":0.01510349627474675,"333":-0.0961297650396533,"334":0.02879611930029506,"335":-0.007160443339371174,"336":0.061610000586782857,"337":-0.11455537621614136,"338":-0.014177200910395519,"339":-0.011098325696473456,"340":0.02114532495003171,"341":-0.05922028959607532,"342":-0.051625878906446244,"343":0.015500744044788465,"344":0.029562137812678222,"345":0.002417572040486178,"346":-0.020944442320060035,"347":-0.03393857108529106,"348":-0.018310880760216336,"349":-0.09115524617765733,"350":-0.0416889045560131,"351":-0.040265531590215044,"352":-0.03731210449563256,"353":0.004587800506707413,"354":-0.03815253664242697,"355":0.07590546549309186,"356":-0.027033934111226048,"357":-0.02995673696631532,"358":-0.058705577735435166,"359":0.040347932895699455,"360":0.05718164768239615,"361":0.019973488833599985,"362":0.0328744096229338,"363":-0.05310026477427495,"364":-0.003549955920162991,"365":0.0476478078951316,"366":0.03813612332906711,"367":-0.03449896023611491,"368":-0.10855026257493304,"369":-0.0271495997697616,"370":0.13177795008365223,"371":0.10802090473483554,"372":-0.023570370426891748,"373":0.04719242849177746,"374":-0.150223301983201,"375":-0.011101029685666747,"376":0.08923575009264312,"377":0.06526697792703062,"378":0.13250966555427016,"379":-0.05126046818477928,"380":-0.056054476283999746,"381":-0.048676060157333875,"382":0.020571530757105907,"383":0.042760342292109864,"384":-0.022196521033195606,"385":-0.035748455772620986,"386":0.08688988232753259,"387":0.0675201143084448,"388":0.002095379616950572,"389":-0.004696649681237916,"390":0.1477648277691887,"391":0.06326678964359328,"392":0.03242541733372355,"393":-0.057793011815067775,"394":0.10344834502561544,"395":-0.021615156077976965,"396":-0.019534087505607586,"397":-0.10020993833671567,"398":-0.01853033957769545,"399":-0.0534510549701958}},{"sx":5,"sy":5,"depth":16,"w":{"0":-0.04442361326351783,"1":-0.015903165586231043,"2":-0.05768235803105478,"3":-0.044454450862451055,"4":-0.048054985149043196,"5":-0.07337104401681621,"6":-0.08438043152367782,"7":-0.03771379539824588,"8":-0.10680332022024498,"9":-0.048451107029675665,"10":-0.017846308304217268,"11":0.04210177540154581,"12":0.054622268141228475,"13":-0.018621180258120457,"14":-0.025570053225195056,"15":-0.032318199987764834,"16":0.0721299372235179,"17":-0.05961922335039943,"18":0.016797428819632105,"19":-0.0413421772821436,"20":0.056335172234952956,"21":0.08340092541431841,"22":0.04179799793419586,"23":0.004945125743594254,"24":-0.001380900372628863,"25":-0.02644168970155897,"26":-0.003359724265394024,"27":0.03374578063075424,"28":0.047098045226745044,"29":-0.08888607673886027,"30":0.06249309050626076,"31":0.003070544600765043,"32":0.05422863331071701,"33":0.009579594512139317,"34":-0.05614541658366868,"35":-0.0838693105638087,"36":-0.02823368577953754,"37":-0.02640062386062474,"38":0.013393666399469952,"39":-0.14133370064797152,"40":-0.027007779031650324,"41":-0.07787035067885707,"42":-0.11646296849760633,"43":-0.050259812683343265,"44":0.014551024044994337,"45":-0.006616616078286802,"46":-0.13826056093212868,"47":-0.09278509685525187,"48":-0.018521795202971165,"49":0.023786411191670923,"50":0.0060407935035368295,"51":0.09315196398082139,"52":0.037144031817854015,"53":-0.020435468839588678,"54":-0.04524086440933053,"55":0.0307559457112967,"56":-0.015056569110392248,"57":-0.019165239147414713,"58":-0.09554034014920944,"59":-0.047389816900997875,"60":0.061182970934741246,"61":-0.029205021716390354,"62":-0.052346001776281084,"63":-0.04428210709350671,"64":0.04197251951817169,"65":0.028985744144382763,"66":0.04608843164487383,"67":-0.0030880052524346344,"68":-0.019699449794946908,"69":-0.025652842985444717,"70":0.03856702006460827,"71":-0.006259977496040325,"72":0.043564409268778526,"73":0.06303391521082324,"74":-0.04568091159344459,"75":-0.023128872268215805,"76":0.06843302590839154,"77":-0.12642193350902992,"78":0.022402771603895262,"79":0.07232937903019895,"80":0.10603448133865453,"81":0.10321565520458346,"82":-0.021164106298277693,"83":-0.0877879074601936,"84":0.023907937433472044,"85":-0.09287761916740808,"86":0.04515836959691873,"87":0.039693710877313916,"88":-0.06728123853671512,"89":0.0059238473984180645,"90":0.00952165864374338,"91":0.010737660262122424,"92":0.030083869997635505,"93":0.1224357940932794,"94":-0.0036265166772394336,"95":-0.10080578681983272,"96":0.026681440268253215,"97":0.05334202080504406,"98":-0.04607196762655226,"99":-0.04798388227697062,"100":-0.07449389194944613,"101":0.013749434711855196,"102":0.05077932413137641,"103":-0.0412413119281784,"104":0.07296317950413637,"105":0.018204917477181913,"106":-0.02248234485555913,"107":-0.03452216078325293,"108":-0.03711741752184525,"109":0.028538493072993186,"110":0.020625333849175812,"111":-0.07779992082007232,"112":-0.054588599200915425,"113":0.0015010980971202916,"114":-0.023409373125267224,"115":0.025990015723489423,"116":-0.04394724425953171,"117":-0.048579322593237245,"118":0.0262622375440988,"119":0.038294176719851324,"120":-0.06057786704823743,"121":-0.08997101724717163,"122":-0.048563675729760065,"123":0.008426241340389745,"124":-0.01791618255764748,"125":-0.023355519354169563,"126":0.03854902318491323,"127":-0.0667246341844884,"128":-0.07542069133335094,"129":-0.10800809534391918,"130":-0.07127867263734676,"131":0.004683817589358626,"132":0.03916323858422371,"133":-0.07549163004277623,"134":0.04397654514442366,"135":0.01857901775609934,"136":0.03529136311832248,"137":0.04039633418641062,"138":-0.1006366544286662,"139":-0.0640190534455363,"140":0.023099738932141164,"141":0.0058760281498538266,"142":-0.09313188410462399,"143":-0.03515749260518379,"144":-0.04127259400314567,"145":-0.04432331723799812,"146":-0.032705129118594904,"147":-0.025265804201353777,"148":0.023153506311695077,"149":0.1343861680016453,"150":0.06546535737465423,"151":0.007557927625418174,"152":-0.003224643001021551,"153":-0.03842996977408441,"154":0.02911884778540726,"155":0.056631070902356716,"156":0.010468318954646316,"157":-0.01666760685244089,"158":0.0893130462122867,"159":0.016010899129535235,"160":0.003537569482773091,"161":0.03949161034815631,"162":-0.03266580638442451,"163":-0.07341948997548275,"164":0.04273787156420645,"165":-0.08081422297745858,"166":-0.09693887241217101,"167":0.00917875535785958,"168":0.03079913229076769,"169":-0.04192419784039448,"170":-0.015641371109813947,"171":0.14518305552724314,"172":-0.07987383116081426,"173":0.004873682977967889,"174":-0.009782140587782259,"175":0.04361227036389255,"176":0.06644294860513529,"177":0.09999569858288666,"178":0.018140300083580044,"179":-0.009103382039268203,"180":0.008438718333756994,"181":0.003727600742493866,"182":0.029950307962275314,"183":0.04643923222230812,"184":-0.11230977685438064,"185":0.012148292076034163,"186":0.048489719471456354,"187":0.042279654102447495,"188":-0.07070520778111558,"189":0.06618162643710995,"190":0.002421861607328506,"191":-0.06426597066283062,"192":-0.05812321575496746,"193":-0.07319456055529888,"194":0.013958484713438584,"195":0.011149595406513746,"196":-0.11281054588516869,"197":0.12897134119718054,"198":0.03380331873619007,"199":0.05058003332720704,"200":-0.07634888454215878,"201":0.0067834108223968235,"202":-0.13021020895342383,"203":0.04669312543400178,"204":-0.0011242036371909645,"205":0.1215279040138732,"206":0.007597671584544949,"207":0.01813793346415729,"208":0.07355274088948817,"209":-0.07644519425308376,"210":-0.03893631431558093,"211":-0.0453978949938385,"212":-0.0761408064374735,"213":0.006184193708165201,"214":0.11283274088184249,"215":0.01998301852587636,"216":0.05623285054222445,"217":0.019080082603739484,"218":0.07915052238617806,"219":0.06272783512103673,"220":-0.06289553411794993,"221":-0.053554305374610055,"222":-0.0503047269802962,"223":0.03790861307067553,"224":-0.0025564567562101977,"225":-0.024360508933555874,"226":-0.0072861239705161365,"227":-0.027956244618308115,"228":-0.03726785019913836,"229":0.006396230401686828,"230":0.052822963364505184,"231":0.04889899837688696,"232":-0.0457927112983967,"233":0.058731609914663835,"234":-0.004864139468312406,"235":-0.06460954083062109,"236":-0.09253026036665099,"237":-0.07497192900791858,"238":0.046086132963882295,"239":-0.06734112793106874,"240":0.07808031512289412,"241":0.060612709148853354,"242":-0.013353737792937019,"243":0.004500690035278504,"244":-0.016293840893805537,"245":-0.024087295836656794,"246":-0.07269789141810674,"247":-0.07622413338300181,"248":0.014297779038036253,"249":-0.008323669072330833,"250":0.042242276303918504,"251":-0.0007366066185543489,"252":-0.1510428975377988,"253":0.028786049888993668,"254":0.03185736601140424,"255":-0.0455533203831466,"256":0.03581994596867523,"257":0.09655125958820744,"258":-0.03447785242695729,"259":-0.09593019826706566,"260":0.0680422315772488,"261":-0.06436208111111966,"262":0.006066619357561411,"263":-0.10448239979363198,"264":-0.07817834172194107,"265":-0.006788413664852933,"266":0.03672307163961131,"267":0.07944813892218158,"268":0.022723764946663925,"269":0.08198733144210506,"270":-0.02431047606145031,"271":-0.00023986968381127787,"272":-0.029767860572358737,"273":-0.04414744458389452,"274":0.03246238313176313,"275":0.03983502160943387,"276":-0.007201296851402442,"277":0.13091381743808342,"278":0.11665116724626547,"279":0.030533679451247103,"280":0.017249665979235322,"281":-0.07615794189541338,"282":0.07171983565177473,"283":-0.04249766040315928,"284":-0.07834877261987866,"285":0.06429712148367704,"286":0.017547826011943896,"287":0.02438911576772435,"288":-0.04706378057432221,"289":0.05134576521363354,"290":0.031991993881835816,"291":0.033935313594267276,"292":0.10156348413188375,"293":0.05265311410884217,"294":0.0958808952543184,"295":0.029985054785549033,"296":-0.05286513013053338,"297":-0.015141648162819923,"298":-0.030878192055324893,"299":-0.07082391249981994,"300":-0.05945423840952521,"301":0.09381508739019072,"302":0.06797084401428319,"303":0.037277671005243235,"304":-0.02158073668166724,"305":-0.021772021009241735,"306":0.024921126475531255,"307":0.06893667070235644,"308":0.10261446294516498,"309":-0.07781838604754822,"310":0.12630291823567855,"311":0.01707030318652926,"312":0.008382874007868295,"313":0.019287369836091077,"314":0.0033263958774042007,"315":0.009814997745702565,"316":-0.038859811909832224,"317":0.031396726601507455,"318":-0.04830949115694866,"319":-0.02479756090689919,"320":0.01884184444528728,"321":0.07225023402582566,"322":-0.057856216024415284,"323":-0.023450706049672955,"324":-0.06572631587351607,"325":-0.058605659063523115,"326":-0.14381329588255845,"327":-0.0463339625278413,"328":-0.03246977329381426,"329":-0.008460427429338906,"330":-0.00044272221619431857,"331":-0.0009292943044724681,"332":0.12033770591167134,"333":0.06768843478041506,"334":0.05435228784913267,"335":0.0049316391950471545,"336":-0.0062789835017926145,"337":0.11286447749449798,"338":-0.06271136232064933,"339":0.009343700409573987,"340":0.05254435955197084,"341":0.030903459335430976,"342":0.018234487189882354,"343":0.04803518218483199,"344":-0.08393238729602155,"345":0.07505026935724006,"346":0.027241292690129284,"347":0.07952973282273897,"348":0.000050899798083562014,"349":-0.0843647369117329,"350":-0.07648635262502047,"351":-0.08143696593294698,"352":0.011228566185860997,"353":-0.0322926785701659,"354":-0.06138274876258637,"355":0.09031445565110707,"356":0.038868030893294686,"357":0.08343395346395656,"358":-0.010753395544468157,"359":0.006112718453094444,"360":-0.020671093810475247,"361":0.028563235748911987,"362":-0.008020092195955019,"363":-0.018042978270421246,"364":-0.05426220839212303,"365":0.013110092201905739,"366":0.018972860642488928,"367":-0.05467761686918092,"368":-0.1364462493957864,"369":-0.001133981578862637,"370":0.0499538707623661,"371":-0.05004430569688527,"372":0.048899820039804504,"373":0.06660695637551876,"374":-0.029075554062814164,"375":0.07232271277873638,"376":-0.08362145188165465,"377":0.0977248888101606,"378":-0.03370199281430878,"379":-0.1265967515643692,"380":-0.06695619421263682,"381":-0.0075185808653107054,"382":0.1269128445103334,"383":-0.0741106932002079,"384":-0.13718514534083992,"385":0.01652527656848874,"386":0.006678471610623014,"387":-0.08591758269684575,"388":0.06723474278847177,"389":-0.07428852445220711,"390":0.009162497007164884,"391":-0.028305483601713498,"392":-0.02002003453692305,"393":-0.0395425321388395,"394":0.05548669154944762,"395":-0.11673492396150853,"396":-0.05730853662043788,"397":-0.0007422182591999764,"398":0.025702725518343208,"399":-0.06167410241875321}},{"sx":5,"sy":5,"depth":16,"w":{"0":-0.007335119624782026,"1":0.0411546213741333,"2":-0.048645536008229524,"3":0.0007378354547163721,"4":-0.07010671706762166,"5":0.01899745184839338,"6":-0.09551198323260505,"7":-0.0450089764861115,"8":-0.07472552468332755,"9":-0.07145435630371239,"10":0.0903474315092793,"11":0.008624522731645028,"12":-0.1065205430018631,"13":0.040931477589095246,"14":0.006717731578765722,"15":-0.009006533682550156,"16":0.05077518262413992,"17":0.02929661936524176,"18":-0.03795564569793344,"19":0.02160062045450812,"20":-0.03798534388347863,"21":0.019407094103261625,"22":0.058272592165017574,"23":0.00082074202505725,"24":-0.0761839603546995,"25":0.03683889605734758,"26":-0.06714441854363885,"27":-0.13150348167275727,"28":-0.07381865406709634,"29":-0.010571824042136942,"30":-0.05109824055570102,"31":-0.13547139643593117,"32":0.016275630960469262,"33":-0.014029397588366741,"34":0.07104562791146693,"35":-0.08981067342824771,"36":-0.0368062719309316,"37":-0.015351584925557818,"38":-0.06210020778208032,"39":0.10956629133071553,"40":0.0054179039821588984,"41":0.03212753381320647,"42":0.020700734685749834,"43":0.018356334421379784,"44":-0.0507548312371884,"45":0.11595920578036015,"46":-0.028787739402373145,"47":-0.12497962126870728,"48":0.021771666950781077,"49":0.04830304080859657,"50":0.13056236003543858,"51":0.08418963901235066,"52":0.04467520084811774,"53":0.11960622470556052,"54":-0.01204342899162793,"55":-0.04546212542742741,"56":0.07019238579907142,"57":-0.08020359842110733,"58":-0.06730275797044674,"59":-0.10264596502644875,"60":0.12751989715881298,"61":0.020173928311786313,"62":-0.010962260732978431,"63":-0.008031795185535873,"64":0.00988115330469306,"65":-0.018256903082748632,"66":0.13012821844920724,"67":0.08052920636746061,"68":0.02879766842631773,"69":-0.008482993506301908,"70":0.024464500094329267,"71":0.0939317950380183,"72":0.047326607789885,"73":0.0479469050923771,"74":0.06903148797376968,"75":-0.06657522830813413,"76":0.05260847721250287,"77":-0.04178505321762766,"78":0.1087537167146613,"79":0.06292013228002355,"80":0.03150869865544377,"81":0.07814765149494385,"82":-0.059475738249408015,"83":-0.08164991825246061,"84":-0.016097779028588353,"85":0.04352084014154293,"86":0.01756090236703305,"87":0.06636888970161721,"88":-0.041883021265323214,"89":-0.02768691974505403,"90":-0.039613417546944564,"91":0.02358474143504509,"92":-0.0005854232867314175,"93":-0.04195370581644146,"94":-0.0449179850139706,"95":0.09314571693081261,"96":-0.021090310593115273,"97":-0.007250725918014504,"98":0.015499822580361873,"99":-0.03310779727773142,"100":-0.018915098383075674,"101":-0.091706145039599,"102":0.05130913178563412,"103":-0.019806202172640265,"104":0.006693137075855014,"105":0.09020127454626614,"106":0.016106337399422216,"107":-0.06629902553642936,"108":0.01877830379786623,"109":-0.08132063147650596,"110":0.029634872859722383,"111":-0.11983147357162754,"112":-0.03823579791361289,"113":0.03588569276744059,"114":0.011129875114860152,"115":0.025616837916693256,"116":0.0037234817329711155,"117":-0.093599490159572,"118":0.08983730906442525,"119":0.010859905147830844,"120":-0.043332898727023485,"121":0.00028509655871690047,"122":0.032946768956963364,"123":0.07264948441022451,"124":-0.04514356389115649,"125":-0.009466117426647713,"126":-0.05719005406285298,"127":-0.07838798471964976,"128":-0.005327266982082943,"129":-0.025717906854885463,"130":-0.007715994857893862,"131":0.001661060311624113,"132":0.0777175748426227,"133":-0.01464214497019505,"134":0.1117839996569555,"135":0.02772777969634569,"136":0.01896298323974896,"137":0.06383355227415123,"138":0.0036227501680076153,"139":-0.009398319702143398,"140":0.05072966226417167,"141":-0.02275945714726652,"142":0.1173747093922877,"143":-0.00614614488975092,"144":-0.11255196302119752,"145":-0.006740911425742109,"146":-0.036260516764556106,"147":-0.09490861399272557,"148":-0.0211352590294557,"149":-0.000785411427347205,"150":0.04538979405956868,"151":0.05024704676437979,"152":-0.010522489062772634,"153":-0.04040199330804792,"154":-0.02673340438643365,"155":-0.09313380249345879,"156":-0.0499525993204276,"157":-0.05691290047080998,"158":-0.08938363739431462,"159":0.004571746142966239,"160":-0.06730110636486698,"161":-0.0016697811477506266,"162":-0.07847879875219355,"163":-0.01403504397194131,"164":-0.08101897942716423,"165":0.019666555279806073,"166":-0.042398624199679345,"167":0.002462278343075902,"168":-0.030539881777556763,"169":0.0900210724908508,"170":-0.017065333273259212,"171":0.04976584237673698,"172":-0.02585973820099946,"173":0.02858410369073994,"174":0.08096633587142851,"175":-0.11350656340059664,"176":0.12543619599518183,"177":0.06876958372356526,"178":0.025148497456654484,"179":-0.021829737646987594,"180":-0.02889344239244598,"181":0.07857511637114355,"182":0.006561485838023872,"183":-0.028043251830103914,"184":-0.06944916086492747,"185":-0.04364358009680132,"186":-0.04368096500209113,"187":-0.013333213394050957,"188":-0.04370216093661366,"189":-0.025939122439707966,"190":0.05738130412723786,"191":-0.0844912515933409,"192":0.03836311103160156,"193":-0.01919122428993285,"194":-0.10721705418548555,"195":-0.016053905256251166,"196":-0.049104073576454264,"197":0.03816850384038787,"198":-0.014546063289588304,"199":-0.06936848970553941,"200":0.06236095956556345,"201":-0.01917663112931482,"202":-0.0064956531436888175,"203":0.009224326792365291,"204":0.040291908595706014,"205":-0.06669335978453345,"206":-0.04101558817093689,"207":-0.03516469628049981,"208":-0.09034406314953877,"209":0.016245959426059765,"210":-0.03180045070955284,"211":0.08270917660900527,"212":-0.0051023508936946255,"213":0.06694134637353111,"214":0.05108770555828017,"215":0.08132022484699031,"216":-0.06738526826359793,"217":0.016051069885631652,"218":0.11417012402496195,"219":-0.028436441780180934,"220":0.03986907940960404,"221":-0.008838097810227851,"222":0.0025645482561119934,"223":0.17610026419067315,"224":-0.07832308636478937,"225":-0.00828509086388051,"226":0.03001696277424337,"227":-0.1025798199665208,"228":0.010056340134234341,"229":-0.005230995997204431,"230":0.09374743506819816,"231":-0.023381529878941164,"232":0.012697161145619076,"233":0.026556471456784084,"234":0.04622687220654337,"235":0.04973783963005492,"236":0.02588773715656482,"237":0.01965758578201683,"238":-0.07219436838838972,"239":-0.039071377757438124,"240":0.11870918580805445,"241":-0.038467037175028015,"242":0.044428433130894215,"243":-0.0354817754338487,"244":0.015243373491076675,"245":0.00920118598097636,"246":0.0002736790437891052,"247":-0.02751446637269909,"248":-0.08354493126943018,"249":0.01720922898417482,"250":-0.030777309540917792,"251":0.1900461262992844,"252":0.08745637955114875,"253":-0.06459659356476065,"254":0.03576394039230775,"255":-0.01683551582159987,"256":0.03303191223811464,"257":0.11567933798114098,"258":-0.10368987140705846,"259":0.0592061042647882,"260":0.0800463464724807,"261":0.025656021805103128,"262":0.030784336695266368,"263":0.04640884029444731,"264":-0.08683823636661611,"265":0.00009523570261064626,"266":-0.019574133627332575,"267":-0.013997397944242497,"268":0.04135105949546773,"269":-0.13384773649863096,"270":-0.04544545453429422,"271":0.01886359655505161,"272":0.011884661074260776,"273":0.09053146006196322,"274":-0.005624984292112169,"275":0.009324161717394846,"276":-0.004993916271745382,"277":0.020686221654708545,"278":0.059767918084449756,"279":0.017967011915768154,"280":0.03436041690498155,"281":0.03823926743766019,"282":-0.017346499260921137,"283":-0.0430410707784603,"284":0.050585715959346834,"285":0.022421391649121197,"286":0.017364620108849614,"287":0.006936028307743209,"288":0.021776361587039737,"289":-0.009622197848589979,"290":0.04415356289993205,"291":-0.1179765945076901,"292":0.04007887061052814,"293":0.058602921460102535,"294":0.11258891051922962,"295":0.044450192141347385,"296":0.09995320263322338,"297":0.03283841747491083,"298":-0.07752144658550952,"299":-0.006811727979834529,"300":-0.029523699582020214,"301":-0.01999924807109762,"302":0.012753500766231498,"303":0.019850325892091642,"304":-0.06575443741501906,"305":0.08253002665500192,"306":0.0001464143837868028,"307":-0.12316863054762271,"308":0.04252888973496731,"309":-0.060505831069628625,"310":0.0022118584893409646,"311":0.03673511960551707,"312":-0.07719283201920613,"313":0.014422935464886294,"314":-0.048662000894609155,"315":-0.054751327596728044,"316":-0.020270970856967167,"317":-0.015751045907831513,"318":0.0035831576196660862,"319":-0.020406576792542742,"320":0.03484026371345165,"321":0.14993397301420835,"322":0.04871060798998119,"323":-0.02743063074126446,"324":0.09751763357415404,"325":-0.03709360078163903,"326":-0.08308635633308978,"327":-0.03768349983502045,"328":-0.03749879274463386,"329":-0.0634081444598097,"330":-0.012500086553163613,"331":0.027185172983076853,"332":0.0973480859837182,"333":-0.05090298488173127,"334":-0.05489053085182532,"335":-0.0210292507866879,"336":0.17016378124448775,"337":0.08796830380570711,"338":0.008153336205716153,"339":-0.06472762623293787,"340":0.07198625433650249,"341":0.022836280758111827,"342":0.10538844506871754,"343":-0.010381517517771228,"344":-0.04801008520394289,"345":0.05884424277687016,"346":-0.1098967717880435,"347":0.009299195083834949,"348":0.030799355549849017,"349":-0.04785358928083295,"350":-0.04005481234482219,"351":-0.09641855450074421,"352":0.04441278175283407,"353":-0.09930658198054104,"354":0.11154108181745438,"355":-0.009560798569940184,"356":0.037440945680456764,"357":0.016003249628048482,"358":-0.02682815747835235,"359":-0.05611575447299029,"360":0.040428571399487745,"361":-0.008738503543806753,"362":0.029531719376330735,"363":0.08462650758059383,"364":0.05869988205300068,"365":-0.03732275204198258,"366":0.04127614640928945,"367":-0.059715995117046304,"368":-0.06640715208186039,"369":-0.06092192887141632,"370":-0.032147921873369706,"371":0.030620203403087593,"372":0.007702209415750835,"373":-0.0045268033929521155,"374":0.003497069956999235,"375":0.00482497735204282,"376":0.0036555012778868756,"377":-0.02961357310924843,"378":0.028902511290117318,"379":0.023674177177491425,"380":0.02805883656914911,"381":0.06490974747147686,"382":-0.06077023411030876,"383":-0.009547490887475156,"384":-0.07947754071411081,"385":-0.08083371758989992,"386":-0.06830208571755966,"387":0.010882242675903035,"388":-0.09388259642826892,"389":-0.013019948153985784,"390":0.08809491641791803,"391":0.08686714717531453,"392":-0.004181940517707353,"393":0.001738880663585028,"394":0.043772145948872125,"395":-0.021481197438584274,"396":-0.04890870048242141,"397":0.0351552327703596,"398":0.0004313080832956036,"399":-0.015969479341546994}},{"sx":5,"sy":5,"depth":16,"w":{"0":0.02079867471942911,"1":0.019082165831813835,"2":-0.025100839189233278,"3":0.0009379735701363408,"4":-0.012760253581191365,"5":0.0044837632069092545,"6":0.0006947766934743696,"7":-0.09029739220359939,"8":-0.020326647514795702,"9":0.046307329518132934,"10":-0.03284163027398743,"11":-0.013804989109566162,"12":-0.048633768429362116,"13":0.02702857812812277,"14":-0.07047283778400051,"15":0.05463695624838199,"16":0.03562554482634264,"17":0.022644377431793223,"18":-0.011554115721209625,"19":0.03151605953406974,"20":0.010458974239088432,"21":-0.06197630232766251,"22":-0.024710641360321986,"23":-0.00031462459811386047,"24":-0.07071584866285663,"25":0.012688819952217966,"26":0.0028786413496444873,"27":0.026492858055253175,"28":-0.046173922749949164,"29":0.03313708978945025,"30":0.022791924597429524,"31":0.05632921800086099,"32":0.0019038812542402149,"33":-0.03853759169399941,"34":-0.05008906245214175,"35":-0.07769595779815586,"36":-0.04178030536407498,"37":-0.020492012669781148,"38":0.006591638934872332,"39":0.03731356731894633,"40":0.0039975809281604675,"41":0.05460740031695112,"42":0.01810612279252917,"43":0.009591636044301502,"44":-0.01079879433490295,"45":-0.053323842243124434,"46":-0.024111828102301794,"47":-0.02797313074261021,"48":-0.016596898286509655,"49":-0.0051472204865892395,"50":-0.05046490562433713,"51":-0.05534608045959363,"52":-0.001252298806883368,"53":-0.030840730845570458,"54":0.026057975673989514,"55":0.0019978903135493553,"56":-0.04915772532511984,"57":0.024302616720233507,"58":0.023398055872846726,"59":0.03790493695216286,"60":0.06133846654845282,"61":-0.014567779569392278,"62":-0.0359375025598566,"63":-0.06393062352058622,"64":-0.028340600277924947,"65":0.06710521662019067,"66":0.012091609915536735,"67":0.032227790682373955,"68":0.0805027151564326,"69":-0.020857761738530673,"70":0.02290631545060466,"71":0.0005734636602829512,"72":0.008070861837358357,"73":0.016463289716151075,"74":0.10082780665351782,"75":-0.009145279009454315,"76":-0.05630025236723434,"77":0.011328564203405741,"78":-0.07660786053523215,"79":0.028964446216221785,"80":-0.0007405455182275731,"81":-0.02910663646644234,"82":0.007907342524290846,"83":-0.009601368078085079,"84":-0.04462496340578503,"85":-0.023795795456801588,"86":-0.0020410248602347313,"87":0.001595360430409358,"88":-0.016557274047132396,"89":0.024135765029675467,"90":-0.0030858640692760044,"91":0.00481382638664564,"92":-0.024439222088299902,"93":-0.05627048905906854,"94":0.026970222278980584,"95":0.029759832821307633,"96":-0.0061635563352690475,"97":0.04356026434895585,"98":0.026995954394953964,"99":0.047243570235314496,"100":0.013794907496079272,"101":-0.02846751081036509,"102":0.010473622797946601,"103":0.01553297333956293,"104":0.01304802369263466,"105":-0.05857748159210409,"106":0.048088910942014784,"107":-0.06284449206246019,"108":0.033223339184031316,"109":-0.004938023302885357,"110":-0.029659700731822843,"111":-0.0065978444318573635,"112":-0.13858223043699022,"113":0.07382287970816842,"114":-0.04009259124119655,"115":-0.04215635232463229,"116":0.0442054446240052,"117":-0.03770464527060496,"118":0.06440616773118213,"119":0.040346756012340126,"120":-0.09337626584652572,"121":-0.022312639580917764,"122":-0.09280042065446859,"123":-0.014301658374846378,"124":-0.09974186444046705,"125":0.022851477261155932,"126":-0.051333896107505335,"127":-0.07584897710667858,"128":-0.07875435757730813,"129":0.05562047650996493,"130":-0.04221591304684536,"131":-0.037704967969139115,"132":0.007562957899620731,"133":0.008107597127455117,"134":0.044111787720243316,"135":-0.11571623168258278,"136":-0.020601739011633216,"137":-0.014924907672416455,"138":-0.011645239598947334,"139":0.004629147683979089,"140":-0.001724196263975702,"141":0.11051123386136757,"142":-0.08049514467272306,"143":-0.0651026994328398,"144":0.021810777754490925,"145":0.05984305892362123,"146":0.0285063609478765,"147":-0.036521526530453895,"148":0.03090034395796024,"149":-0.07072807608361575,"150":-0.04619696517660393,"151":0.0008466176944237081,"152":-0.10533581385474762,"153":0.05953287449731899,"154":0.026105594736526433,"155":0.08166604121067728,"156":0.08639004262572376,"157":0.01384892020181647,"158":-0.07746879030701004,"159":-0.0858172100171442,"160":-0.033750168956111694,"161":0.07408188868901391,"162":-0.000346590402506197,"163":0.036658794564841564,"164":-0.037329082824720236,"165":0.0133145354958116,"166":-0.01886085919729533,"167":-0.009629886918775879,"168":0.006051830762621267,"169":-0.05343697362735619,"170":-0.0027353062005571987,"171":-0.012554860837463155,"172":-0.010340212532836802,"173":-0.13069228381673653,"174":0.09181773719202072,"175":-0.016576971340099427,"176":0.06501076450273156,"177":0.027430741093887503,"178":0.06138288877988864,"179":0.05701622536877118,"180":0.03736193358794249,"181":0.03631806402522211,"182":-0.10340250742666664,"183":-0.0515283096312064,"184":0.08890300296169919,"185":0.00039603933621797,"186":-0.004078344526284245,"187":-0.0227598206309093,"188":0.05161150508839357,"189":0.030084932599206922,"190":-0.040057242564502174,"191":0.047893661121855995,"192":-0.04786276136235839,"193":0.05695311241703815,"194":0.02450527241266283,"195":0.007043699356301873,"196":-0.07112335655139762,"197":0.024687320491142636,"198":-0.003125354018689574,"199":-0.02048772134302997,"200":0.05756939554673793,"201":-0.011999831225159893,"202":0.03421441155271324,"203":-0.015978448071518256,"204":0.03752608827725832,"205":-0.024757339996149017,"206":0.09082925755492074,"207":-0.019741454705860965,"208":-0.02626300314610422,"209":0.05450970327235299,"210":-0.015086085563188481,"211":-0.0718281540651169,"212":-0.020384006372545175,"213":-0.032645655897859664,"214":-0.024115436349439103,"215":-0.004021518478914346,"216":0.0008754688187974553,"217":0.026616178437184827,"218":-0.13296890357389538,"219":-0.032897017574186116,"220":-0.02996489026607926,"221":0.1196939787341926,"222":-0.048877503626640194,"223":0.0749766126771447,"224":0.044337856020644786,"225":0.05349014731505789,"226":-0.005114415063576606,"227":0.01999416039861449,"228":0.08605589337599666,"229":0.04857690897891182,"230":-0.05583185077512256,"231":0.02265234644039879,"232":-0.08428665140623001,"233":0.01866284459176154,"234":-0.030889860584719948,"235":0.12501215104127172,"236":0.04120726714394748,"237":0.09752097099294775,"238":0.03769431073736189,"239":-0.10058557936163369,"240":0.0072444701955726495,"241":-0.015187456634417777,"242":0.030179745503405637,"243":-0.029126711178825208,"244":-0.03791414265844217,"245":-0.02101611554290162,"246":-0.0796673827633526,"247":-0.05331172161081937,"248":0.07997847877503944,"249":-0.09579540391287919,"250":0.05073581561851161,"251":-0.12022065215777664,"252":-0.11830688027927946,"253":-0.07284926065342745,"254":0.020144040330980023,"255":-0.08096436334885476,"256":0.07348995035869607,"257":0.07392444216206273,"258":-0.06464955915552564,"259":-0.03189235182004344,"260":-0.014923967101876988,"261":-0.0668719722177436,"262":-0.11176580432295752,"263":-0.05941827707710527,"264":-0.00015010018083946042,"265":-0.00828580901227468,"266":0.02429326496924809,"267":-0.003655044666621765,"268":0.0013596111685080282,"269":0.0004030765047519365,"270":-0.011894308412622408,"271":0.0458240529505386,"272":0.06158948309338353,"273":0.05446565696606949,"274":0.026505527940798863,"275":-0.04398345846752747,"276":0.029084801923078527,"277":0.09588750982279655,"278":-0.011000252787599725,"279":0.024393698635061592,"280":0.033882089624796746,"281":-0.03120559922805293,"282":-0.06558711504676444,"283":0.02288706951142311,"284":0.0659674440005603,"285":0.003443963914052426,"286":-0.04844328781852168,"287":0.09289966285230546,"288":0.07978645581492004,"289":-0.06600857228326602,"290":-0.007689198009313465,"291":0.043966356962453074,"292":0.06911008543784797,"293":-0.0010480406233426794,"294":-0.036539569215166726,"295":-0.10425510152380175,"296":-0.022110851043374864,"297":0.007044210137013512,"298":-0.08351660096750083,"299":-0.017534170242947286,"300":0.09204894151213948,"301":0.00985010967377134,"302":0.06720008843569003,"303":-0.03863446468393211,"304":-0.009695556928209621,"305":-0.008097218415690317,"306":0.08621567730204623,"307":0.006889187025910567,"308":0.009746381827227084,"309":0.07825271596294817,"310":0.04475365378410994,"311":-0.026458962041795504,"312":-0.04541751496199031,"313":-0.05687776153162166,"314":0.025194285046900147,"315":0.039834843460646314,"316":0.015384074021592482,"317":-0.020457535750013064,"318":0.026429147938037387,"319":-0.03898348306708843,"320":-0.07116976802134978,"321":-0.04893957993044738,"322":-0.06052063585504835,"323":0.0041356779596431,"324":-0.059484464910479484,"325":-0.019259025563493588,"326":0.014432902751740966,"327":-0.01663559397832063,"328":-0.05719895735013345,"329":-0.04947492426457875,"330":-0.091834993406081,"331":0.03261975451498058,"332":0.006546762393465873,"333":-0.006735204167008001,"334":-0.0648720504473573,"335":0.05704023401638484,"336":-0.06355284174080054,"337":-0.013146989540383052,"338":0.038929503218384676,"339":-0.021582435677107152,"340":-0.07994665589961565,"341":0.04149163525270954,"342":-0.1062459228070273,"343":-0.04126820677897524,"344":-0.03473644824277788,"345":0.015132280704573158,"346":-0.036645787279193195,"347":-0.056558933072875364,"348":0.037411397706807306,"349":0.003926100177976212,"350":0.0042792556705609375,"351":-0.06425927186207919,"352":-0.008489579570496134,"353":-0.020576067466388667,"354":-0.033206651110950176,"355":0.0035457673294490336,"356":0.005557383150575187,"357":-0.010197193502662343,"358":-0.07792354211129456,"359":0.027219791545477795,"360":-0.039839821158258494,"361":-0.00006789562289858739,"362":0.018565892493015063,"363":-0.054853394048804766,"364":-0.07481303627007109,"365":-0.033742368040532246,"366":0.04142644381323086,"367":-0.004111366197542888,"368":0.038685109188957074,"369":0.13578080771799608,"370":-0.023638104969364342,"371":-0.09623117360138732,"372":0.02083592748988952,"373":0.00381817150788699,"374":0.04768100344496421,"375":-0.013434834763764905,"376":-0.0072831480673737955,"377":-0.003194532493757481,"378":-0.020965920511153053,"379":-0.003035006158960955,"380":-0.015243687155464753,"381":-0.059642257500113,"382":0.04754206638362172,"383":-0.010421839488013073,"384":0.001656368107871883,"385":-0.014051123757738836,"386":0.0009918119707910938,"387":-0.042425523895688294,"388":-0.024499006018411856,"389":-0.0019405881847442581,"390":-0.09946815652144424,"391":-0.011270375921143218,"392":-0.05689908524530894,"393":0.038111370336608386,"394":-0.02439572263178379,"395":0.013687673865527671,"396":0.07594343014727867,"397":-0.04571555087478869,"398":0.07262613839047811,"399":0.012493151327934075}},{"sx":5,"sy":5,"depth":16,"w":{"0":-0.07191492885921319,"1":0.022682678325693317,"2":0.07195056803145194,"3":0.08291712466896228,"4":0.01622242857873366,"5":-0.04778082821622592,"6":0.07838607530311409,"7":0.06603772689547839,"8":-0.011579564957310334,"9":0.07078130057034462,"10":-0.02053151062134558,"11":-0.008519792011495863,"12":0.02735587457546938,"13":-0.0013669053052673414,"14":-0.0036421027003980984,"15":0.08545666381722607,"16":0.056177699500673424,"17":-0.04126337536202447,"18":0.07479102758107976,"19":-0.06410329911370764,"20":0.0246767361756165,"21":-0.02690761368363801,"22":-0.056119357885201955,"23":-0.027378193695336856,"24":-0.014011923445746487,"25":-0.002746824024358918,"26":-0.019298901961849156,"27":-0.022467097119494146,"28":0.02795397777710941,"29":0.00852094426814726,"30":-0.07273725610363041,"31":-0.08686845644512059,"32":-0.08173907901243348,"33":-0.0459456780321994,"34":0.032042138510564346,"35":-0.004719405056961645,"36":0.0026051392368601576,"37":-0.06760152479809006,"38":0.04894020212809596,"39":-0.10802778801869826,"40":0.005462546979346361,"41":-0.12779780413337163,"42":0.08459937874837424,"43":-0.009931362625700393,"44":-0.09184726511478877,"45":-0.017103205704617076,"46":0.016254833936583085,"47":-0.042461487917105335,"48":0.0069125975008007675,"49":0.056343887476847584,"50":0.0058070227155442656,"51":-0.036356834068919514,"52":0.016893979483506846,"53":-0.10596094494611208,"54":0.07435685033952008,"55":-0.04493332982102583,"56":0.04024690017638598,"57":0.033740119709752776,"58":0.06891722278522242,"59":0.04644371121293849,"60":-0.037045358615187485,"61":-0.0062737687635320265,"62":-0.04200398753809958,"63":-0.016421465136656724,"64":0.03438041969389925,"65":0.016115350871070966,"66":0.08130892792249887,"67":0.026925264392489642,"68":0.05658205942105698,"69":0.07680762703073361,"70":0.054964435645344985,"71":-0.023621917398297373,"72":0.004626221831778994,"73":0.04234761602120538,"74":0.0003848390278491138,"75":0.061539933954718365,"76":0.012821534733780603,"77":-0.01930391084309018,"78":-0.05357427162714409,"79":0.057659467624277,"80":0.06755020055071685,"81":-0.022020661589944344,"82":0.056204942348285956,"83":-0.016208481482459246,"84":-0.02828577691045386,"85":0.0530328735638691,"86":0.07256627037814063,"87":-0.06523473744163595,"88":0.03208230740799694,"89":-0.05431852388554794,"90":-0.07033236739184862,"91":0.06622033674112716,"92":-0.02883418570717042,"93":0.0231240053927967,"94":-0.015432977642611641,"95":-0.0030769089744521775,"96":0.006424427506914557,"97":-0.06979818812065351,"98":-0.019710266250706054,"99":0.031201096993803225,"100":-0.005471867542105091,"101":-0.00045636805489094776,"102":0.014058434258351276,"103":0.10348037358879561,"104":0.013901673517481474,"105":0.069031112795726,"106":-0.016276777033434973,"107":0.014954547285244486,"108":0.04779038343821635,"109":0.060816774293830984,"110":-0.024471645514630977,"111":0.03916776907972956,"112":-0.012756542565880883,"113":0.07184303289379229,"114":0.09206600997137514,"115":0.011711234192909557,"116":0.08882395753174344,"117":-0.0965002770573459,"118":-0.002333545390508301,"119":0.02478968597553884,"120":-0.033722854501252494,"121":0.012225499322737634,"122":0.06172401188422836,"123":-0.04598873180314498,"124":0.06444693106209957,"125":0.09250586337031327,"126":-0.049140879999704984,"127":0.013757771013476427,"128":-0.05306624348082545,"129":-0.04806686096422422,"130":0.03101931851835125,"131":0.09811281606648468,"132":0.10088873500055588,"133":-0.08931957073746576,"134":-0.037240158552688266,"135":-0.02030824922116999,"136":-0.02231497482670154,"137":-0.03442811700006098,"138":-0.03200006661825988,"139":-0.007818304719524138,"140":0.052204831949721746,"141":0.12292910629268002,"142":0.004962403180450742,"143":0.043994287084836645,"144":0.06071663253516357,"145":0.051990346180383,"146":-0.04768682523444609,"147":0.09904347663716155,"148":0.04841792947022255,"149":0.018001137966724763,"150":-0.015552283352807375,"151":0.060513046220866146,"152":0.05968969624126024,"153":0.007124774007837662,"154":0.04928337977985976,"155":0.009446682030455353,"156":0.06176211126002138,"157":0.052946991457469054,"158":0.04606575107846987,"159":-0.015044621482289673,"160":0.058860744741953755,"161":-0.13005404645624596,"162":-0.09457942508840068,"163":-0.12149982670991376,"164":-0.06893340323204498,"165":-0.014751733635117358,"166":0.014298726196309949,"167":-0.05277414862815467,"168":0.08809911800158698,"169":-0.011464955742393692,"170":0.0016053873826532244,"171":-0.0033519145403736058,"172":0.005838008428292397,"173":-0.035304539267683205,"174":-0.046003756260594,"175":-0.02003894274763299,"176":0.06693955886307794,"177":0.0032791972729092835,"178":-0.07323884735796696,"179":0.08348861334164621,"180":-0.04336925694571375,"181":0.09499704480442199,"182":-0.019452617678739792,"183":0.08125522667238486,"184":0.0036137053223176297,"185":-0.07788493027257375,"186":-0.008013561564204035,"187":-0.018420067613932164,"188":-0.0001809194994667723,"189":-0.07007584817568713,"190":0.05109333348972021,"191":-0.014103773349984678,"192":0.048320445218575064,"193":-0.009784937303478684,"194":-0.049734940193770054,"195":-0.04439318747759523,"196":-0.0215105980239204,"197":-0.014414064768551279,"198":-0.12488709536711427,"199":-0.08270376949638256,"200":-0.032314066239904446,"201":-0.14841066007904305,"202":-0.129867411173145,"203":-0.0331034271288444,"204":0.021406322892897196,"205":0.11044894339008708,"206":-0.014715947738915101,"207":0.07903634881635005,"208":0.028905207802426593,"209":0.006201505260737394,"210":0.012878643241968047,"211":0.10482362575173083,"212":-0.018080105127894104,"213":-0.08396001132153356,"214":-0.010425213723362465,"215":0.003037100680900418,"216":0.015480102292774276,"217":-0.07750539655955188,"218":-0.07896520664991805,"219":-0.03604797591101465,"220":0.06831428683325058,"221":0.001726308705369635,"222":0.058394791554009555,"223":0.055945477604770026,"224":0.03931736612273375,"225":0.011586537114286767,"226":-0.004826709801631077,"227":0.03758740609487343,"228":0.009168179532074766,"229":0.02512092324604018,"230":0.021126149128599146,"231":0.004247176781932006,"232":-0.07097168334957908,"233":-0.004809154770127975,"234":0.0615431116925687,"235":-0.04315121161524261,"236":0.10638811727263547,"237":-0.02753283409556371,"238":0.0770079978417181,"239":0.030891487948937632,"240":0.025133433929850266,"241":-0.02286455937540818,"242":-0.03138662138545078,"243":-0.03140654704015808,"244":0.05177574711872926,"245":-0.01928437014899873,"246":-0.09832424051501702,"247":-0.040699555249105755,"248":0.15191017832237924,"249":0.06967620738263101,"250":0.051483240461468176,"251":0.015352055997254272,"252":0.045754411534389756,"253":0.08775216525491675,"254":0.008565233348298663,"255":0.06271074847080854,"256":-0.04696928295596079,"257":-0.057667495345272594,"258":0.01124163197748557,"259":-0.09144156858852834,"260":-0.0073346129239203,"261":-0.05008943987158951,"262":-0.036210884131699844,"263":0.005569327193540224,"264":-0.10643346980275631,"265":0.014861107536084012,"266":0.07243063706967368,"267":-0.04380821883836242,"268":-0.02281585123800079,"269":0.015248735004860039,"270":0.010503463043980563,"271":0.017737512846398275,"272":-0.14378945895321527,"273":-0.04511588909331854,"274":-0.0037721084363163153,"275":-0.015256270136472143,"276":-0.03416939748358545,"277":0.0011869032587903876,"278":-0.05128491341924486,"279":0.00044393007424287166,"280":-0.005745501737986554,"281":-0.045294766848065,"282":0.0007435987355523988,"283":-0.1029113935508372,"284":-0.019016387637914578,"285":-0.03655766355583967,"286":0.01149117939328293,"287":-0.10567344126899755,"288":-0.028321069765046995,"289":0.04611017227481387,"290":0.04757244470577925,"291":-0.0007818203942158394,"292":-0.011409767383544196,"293":0.01685861166518674,"294":0.01045390251971005,"295":0.01225060946106103,"296":-0.09413839647820932,"297":-0.08953592685391502,"298":-0.007253132937574129,"299":-0.036221517599619786,"300":-0.021100944039345523,"301":0.014751774991970229,"302":0.052322688644299696,"303":-0.08337347006600937,"304":0.031629426853572604,"305":-0.09327968408947614,"306":-0.1048340177591641,"307":-0.08839150105898752,"308":-0.07124985916689161,"309":0.02077610125738957,"310":0.06725891053435176,"311":0.016186054310811628,"312":-0.1828822738442866,"313":0.0025092531819680465,"314":0.07330271528923506,"315":-0.09718763767243187,"316":-0.04153189687837724,"317":-0.09935555250290075,"318":0.049264465338274756,"319":-0.03737578583217873,"320":-0.055472099924164284,"321":-0.007256138763752816,"322":-0.0012784678190217672,"323":0.08283407768917397,"324":0.10290623752910817,"325":-0.030820632472515437,"326":-0.006205670223769355,"327":0.025825712350012218,"328":0.11200307058754827,"329":0.05616769683163454,"330":-0.016059952784038704,"331":-0.1274751018428416,"332":-0.04266511235281819,"333":0.054099404087562156,"334":-0.1069861450479308,"335":0.060146137376813895,"336":0.05959470230337525,"337":0.014529425075900184,"338":-0.0011124262889292307,"339":-0.025373048093317044,"340":-0.03217963198909315,"341":-0.11163103598434974,"342":-0.06581712393529277,"343":0.01814877994636074,"344":0.05663689001749891,"345":-0.015214029873209472,"346":-0.002328530503231561,"347":-0.14230205266143597,"348":0.03278963105660931,"349":-0.045253031889331434,"350":-0.051405090150099766,"351":-0.032972134480010185,"352":-0.009206054865167422,"353":-0.025330680927331976,"354":-0.04991227235268516,"355":-0.04871688045779223,"356":0.04224048091987009,"357":0.002717065399049099,"358":-0.03600256448218115,"359":-0.07061548537031173,"360":0.013413915378673898,"361":0.027528951498103263,"362":0.03806071131046508,"363":-0.06749785160078804,"364":-0.024997461299793026,"365":0.005014627467538213,"366":-0.05388991362136442,"367":-0.03779997560744507,"368":-0.0345909794688644,"369":-0.11322719273599877,"370":-0.028506036961819834,"371":-0.010583257642151043,"372":-0.02948978344519235,"373":-0.062167047629703945,"374":0.08506591797618858,"375":-0.128022783842513,"376":-0.06628896992720539,"377":-0.0860428866029695,"378":-0.10065454137464848,"379":-0.025549574655896575,"380":-0.019036118285631634,"381":-0.10878929467008525,"382":-0.07806287358995201,"383":-0.0704650850617394,"384":-0.026105544145273687,"385":-0.10403029499535803,"386":-0.13277471791741402,"387":-0.017147320425185995,"388":-0.03929547540078673,"389":0.0055983172856768565,"390":0.0641642873496413,"391":0.014075101947640972,"392":0.029088765662431786,"393":0.0008150449489068923,"394":-0.028932691942641215,"395":-0.03999869971503181,"396":-0.053462659768029525,"397":-0.0007799580778591986,"398":-0.12173166459448016,"399":-0.11220434451152454}},{"sx":5,"sy":5,"depth":16,"w":{"0":-0.052391365180255355,"1":0.08416628196549672,"2":0.025917173902502602,"3":-0.003437364812859667,"4":0.03012274668775682,"5":-0.09030766306266115,"6":-0.05799117051484898,"7":-0.014588524484193104,"8":0.019099834776896096,"9":-0.010664562395037807,"10":-0.05580631454933506,"11":0.01579685548929742,"12":0.054663394502769656,"13":0.04867237478837044,"14":-0.051550751106187634,"15":0.018644785439798413,"16":-0.04097076116252891,"17":0.007908062967627754,"18":-0.05859105375821974,"19":0.023951800608884567,"20":0.004369533282970557,"21":0.023777618078707582,"22":-0.0485621462227739,"23":0.028454754042079984,"24":0.016952177564899813,"25":-0.04658845835365649,"26":0.005288134693379781,"27":0.05384812958388557,"28":0.03322249291364354,"29":0.0009200163259246152,"30":-0.061769831260104074,"31":0.01971616714091641,"32":-0.01178284105899304,"33":-0.0009904554958155016,"34":-0.05151631401644361,"35":0.013512251248304772,"36":0.014651932547664287,"37":-0.021694395254574762,"38":0.02267359416943447,"39":-0.0739981273633162,"40":-0.07954140144137385,"41":-0.0498268652586763,"42":0.04259531566006908,"43":-0.0021776582248604444,"44":-0.037619351812280606,"45":-0.033624746684918,"46":0.06361073554338233,"47":-0.021497474147932162,"48":0.02365577077322604,"49":-0.06490705237739944,"50":-0.023563805363295904,"51":-0.0796540367783866,"52":0.08987915142611938,"53":-0.008153468624567615,"54":-0.017425814789167885,"55":-0.05778967826056449,"56":-0.08617731953774696,"57":-0.06658764402318697,"58":-0.07463163002888223,"59":0.02118515093268352,"60":0.004071531518052864,"61":-0.0017368593268126994,"62":-0.0005002408333309457,"63":-0.03057150034435694,"64":-0.0924292313910508,"65":-0.06821312873281254,"66":0.03930500742061324,"67":0.022417609521469317,"68":-0.018245757553794945,"69":-0.046638055224233324,"70":-0.03159418439086589,"71":0.02402579101519981,"72":-0.07316549829302041,"73":0.01262675704737019,"74":-0.08012118850259589,"75":0.01248981134818755,"76":-0.017281617708429932,"77":0.011376790001866501,"78":0.0036117272291677415,"79":0.02207657515736707,"80":0.004222499032316966,"81":0.030495422049286097,"82":0.005472018735632959,"83":0.06247838146062163,"84":-0.018836280682647154,"85":0.04670950390193969,"86":-0.012933066314488728,"87":0.007876965070543153,"88":0.00683443435847115,"89":0.03481756331775859,"90":-0.03972311750493646,"91":0.014757146067322693,"92":0.04569712514148586,"93":-0.019615165124547397,"94":-0.06842317761787016,"95":0.054695721905028104,"96":-0.014128132762209119,"97":-0.08873909230294515,"98":0.04524679680933454,"99":-0.0383619032668388,"100":-0.0397432260916378,"101":-0.03253192771050368,"102":0.03562584189343459,"103":-0.019678466747815992,"104":0.05707682357538193,"105":-0.0009518874293784728,"106":-0.02318442198846053,"107":0.03792917057312862,"108":-0.03922053108886855,"109":-0.00572293167497096,"110":-0.039673586221305866,"111":0.008148532445917695,"112":-0.04227131343662812,"113":-0.1011407246966186,"114":-0.035268210862820754,"115":-0.004898392586277282,"116":-0.017281841260068632,"117":-0.11632834182600515,"118":-0.025074905994233607,"119":-0.011850114262123793,"120":0.03850438027785467,"121":-0.057668722571356926,"122":-0.014805441415525786,"123":0.02868813224398781,"124":-0.012299044683805157,"125":0.03143230330583716,"126":0.012329711259456907,"127":-0.004447894182417319,"128":-0.01712072331748124,"129":-0.03325595841103779,"130":-0.03936943853352093,"131":0.06096024389940325,"132":0.006891466215021824,"133":-0.0029251083372458008,"134":-0.021544604151759617,"135":-0.045684262038472596,"136":-0.03500852905966523,"137":-0.01373087002697046,"138":0.043128579061798206,"139":0.0030924259539774784,"140":-0.00826547193759981,"141":-0.03048781359798863,"142":-0.07678354149740721,"143":-0.03951081129403382,"144":-0.02347642703754604,"145":-0.034608865286736554,"146":-0.041234348126119334,"147":0.011515729044553523,"148":-0.037158000380302286,"149":-0.06507850328103446,"150":0.03943046050594631,"151":-0.06644341666473053,"152":0.03237189899099237,"153":0.055216170249691346,"154":0.04474661876444566,"155":-0.029229706593370496,"156":0.07273967819286489,"157":-0.025957906088755554,"158":-0.013220367439756766,"159":-0.02582429909564731,"160":-0.045899736879007495,"161":-0.06630380468373144,"162":0.01118553954152411,"163":-0.005521966661629302,"164":-0.05641321976770244,"165":-0.05706512684240041,"166":-0.039172036024472084,"167":-0.06127576795791729,"168":-0.03158669683747225,"169":-0.0034284662471685354,"170":-0.04949554987649166,"171":-0.028524197151963644,"172":-0.0015325450774032817,"173":0.02897087083507033,"174":-0.0014079414424406455,"175":-0.019684042504625937,"176":-0.032112067674752845,"177":0.04002771978532027,"178":-0.012907929923036658,"179":-0.024215708418168867,"180":-0.09184108085963358,"181":0.0023743132525410335,"182":0.03638003591706704,"183":-0.030513328188675717,"184":-0.03732040508092827,"185":-0.029372928846122786,"186":-0.031105582152209967,"187":-0.03734386939513984,"188":-0.025447519448384765,"189":-0.00848094797527389,"190":0.030989690273880453,"191":-0.08565421845270711,"192":0.0033280181482326283,"193":-0.0671433687639411,"194":0.0319346064018239,"195":-0.03258070423606829,"196":-0.007629167915364429,"197":-0.02894110891633937,"198":0.022576995691341008,"199":-0.05491428126278107,"200":0.01982754626645134,"201":-0.03213148729903647,"202":0.012433257434933362,"203":-0.05179671338927785,"204":-0.01316670589530891,"205":-0.06359371850157344,"206":-0.03234098594529536,"207":0.04378311726336862,"208":-0.04637878905139598,"209":-0.04749375906206717,"210":0.038775504219769684,"211":-0.034945912932660965,"212":0.021682038042444896,"213":-0.041043172814599425,"214":-0.05500428585146327,"215":-0.028840791214253814,"216":-0.013876906288560134,"217":-0.017441207998437507,"218":0.04331712040018521,"219":-0.07672443701703706,"220":-0.006955573913492378,"221":-0.03622802898786332,"222":-0.06268556091741172,"223":-0.0448643684836262,"224":-0.016236147567682224,"225":-0.02339626718985338,"226":0.053996466678698826,"227":-0.013600240584972736,"228":-0.01568061213789377,"229":0.018166182859463677,"230":0.043071757170214504,"231":-0.024959505053197377,"232":0.0016187615180028988,"233":-0.011864186994868643,"234":0.043619194751252796,"235":-0.03734926929189054,"236":0.03639059408429471,"237":-0.04102289496884522,"238":-0.1080663759803658,"239":0.027681201929902432,"240":0.063850649973377,"241":-0.05661915916993752,"242":-0.04297304776125734,"243":0.04123329714234816,"244":-0.013295434054619429,"245":-0.10309246013022721,"246":0.05894998169459404,"247":0.045639348994211786,"248":-0.016531645118513467,"249":-0.0143227062405127,"250":-0.08164140362761829,"251":-0.048028362908877235,"252":0.024805614973907167,"253":0.0058884118052966155,"254":-0.07837714428606497,"255":0.057954850810037754,"256":-0.022533431874822773,"257":0.011412439708287897,"258":0.06330425759861766,"259":-0.03456407627016465,"260":-0.07795642640763081,"261":-0.012899012405486472,"262":-0.02393899900080885,"263":0.03923029517373094,"264":-0.030569850015409454,"265":-0.004165194006465859,"266":-0.024587975778201734,"267":-0.06732993797243643,"268":-0.010075150124744832,"269":-0.06479906049678415,"270":-0.07128415646195933,"271":-0.0006564755214289683,"272":0.009987854703145383,"273":-0.04876475239459454,"274":0.04230265642566744,"275":-0.012015055553266672,"276":0.004702875568849706,"277":-0.01325213619485279,"278":-0.036825063625101705,"279":-0.01078386272734684,"280":0.04690903030272697,"281":-0.011518730980557921,"282":0.011920413983804933,"283":-0.08770273525666472,"284":-0.07287466070036043,"285":-0.08727876834058959,"286":-0.03200169728535247,"287":-0.01934810724784178,"288":-0.052322953479334994,"289":-0.08297211068738305,"290":-0.014169304515194268,"291":-0.015138941097091924,"292":-0.06583553940227359,"293":-0.09819876677035735,"294":-0.028353635351013335,"295":-0.03340110893189196,"296":-0.050087458742490105,"297":-0.07559169126378545,"298":-0.07817769653481335,"299":-0.07134636608964683,"300":-0.029222870115043993,"301":0.011521190421100655,"302":-0.029353326327528878,"303":-0.010479613555886903,"304":-0.016592848969168857,"305":-0.053695387227632695,"306":-0.040221200956651666,"307":-0.013928671575045353,"308":0.05597079473948452,"309":-0.09143677711841419,"310":-0.076145488461563,"311":-0.07299134571684227,"312":-0.06058629060714097,"313":-0.008032218843881656,"314":-0.015951709778426054,"315":0.01638713192729197,"316":-0.018963433527202735,"317":-0.0032778197578768233,"318":-0.027637572328174886,"319":0.012851491311067536,"320":-0.008998153389796891,"321":0.01073487189507749,"322":0.03067720844114102,"323":-0.03713203393975681,"324":-0.04989559353015615,"325":-0.030880404254204196,"326":-0.07767659897599322,"327":0.02972705302880868,"328":-0.036149197884720076,"329":-0.03845933535487347,"330":0.011137863483822962,"331":-0.09756480152319012,"332":0.018124568227621998,"333":0.04429839232366251,"334":0.00577184329302533,"335":-0.02846587644889037,"336":0.014104282139357448,"337":-0.0846863243920292,"338":0.012703780890060818,"339":0.031056556226515097,"340":-0.03544510905278693,"341":-0.07570292047820716,"342":-0.0018504641870614833,"343":-0.10488452574933536,"344":-0.007090616512490214,"345":0.012982601190346672,"346":-0.006802501459984385,"347":-0.06095225700282623,"348":0.023357052903083205,"349":0.0191276647780098,"350":-0.03127695923907398,"351":-0.02688087181665495,"352":0.019457622036793167,"353":0.02542036226108259,"354":0.03802047488916873,"355":0.024576289939994198,"356":-0.017214988488644306,"357":0.023280760488203597,"358":0.006962895900246139,"359":-0.05722823657954906,"360":0.021745083482089873,"361":0.006355605651950064,"362":-0.0684731086545346,"363":-0.01277989221332718,"364":0.018380439760572347,"365":0.0059596727073664415,"366":-0.05195042615492278,"367":0.003959459513038128,"368":0.010451189399847858,"369":0.062596488839053,"370":0.05276004516393886,"371":-0.028758855933360278,"372":-0.027613649050150374,"373":0.0019950085660647484,"374":-0.01399739795074658,"375":-0.004904590687976258,"376":-0.004339125446225206,"377":-0.015054608799843449,"378":0.009583291774294915,"379":0.0023474608600397052,"380":0.004927089317210495,"381":-0.05434494505002926,"382":0.013113503416170158,"383":-0.05190860742871198,"384":-0.10268738137714886,"385":-0.05076705880282144,"386":-0.005244127178786464,"387":-0.021986195344122744,"388":-0.0386688427821447,"389":0.013499179335489194,"390":-0.03650008114289575,"391":-0.047327299889853125,"392":0.05433115189878082,"393":-0.01693442736074211,"394":-0.0399678577619503,"395":0.029157627716725212,"396":0.043716731320193256,"397":-0.04479143210772787,"398":-0.0032679150052339584,"399":0.032203364799973454}},{"sx":5,"sy":5,"depth":16,"w":{"0":-0.009559015494464047,"1":0.020045003381811522,"2":-0.07825295357368078,"3":0.07233613741858173,"4":-0.06556127381145878,"5":0.023414164079733298,"6":0.04346735131582904,"7":-0.07749009598362618,"8":-0.00618048485588014,"9":0.03122727521909366,"10":-0.05686954097224967,"11":-0.04573371710341626,"12":-0.06646509906392417,"13":0.04983129732880609,"14":-0.0008366896818355998,"15":0.039032203608714094,"16":-0.025804041274146844,"17":-0.022212718353580675,"18":-0.01483575636362291,"19":0.01633886776579221,"20":0.04365323894891025,"21":0.0808026651756778,"22":-0.02533306484510421,"23":0.03262695124203194,"24":-0.17844664071890787,"25":-0.013125700532245951,"26":0.006076732036965936,"27":-0.07506271118438673,"28":-0.022566065280703214,"29":0.10839220815671068,"30":-0.07491781460055195,"31":-0.038395791698270176,"32":0.020344591488325015,"33":0.04536807525444405,"34":-0.023218061635896847,"35":0.03509920015937949,"36":-0.054718236127576945,"37":-0.03676365781816162,"38":-0.022968411092082294,"39":0.03360435676901814,"40":-0.06409619746411879,"41":-0.04869559935470387,"42":0.057647603972233105,"43":-0.07497340958234099,"44":0.01643272189895714,"45":-0.002394531026086592,"46":0.022646542973202392,"47":-0.09036933472769249,"48":0.05878315445165684,"49":0.12392480978526774,"50":0.08060278082346789,"51":0.01403818128690589,"52":0.043927272609929756,"53":-0.0923071938509146,"54":-0.09461099476245528,"55":-0.04126843312659703,"56":-0.08146700143876885,"57":0.054994036874852305,"58":0.1140646411178607,"59":0.0656452676392576,"60":0.0029868650754249567,"61":0.035399056125242793,"62":-0.06235111035568257,"63":0.07596092479066309,"64":-0.010754876435471019,"65":0.12498055525863795,"66":-0.011729928593059817,"67":0.06120155256295365,"68":0.0451921779273693,"69":0.0478388168489339,"70":0.03847611199637276,"71":-0.007755340098769214,"72":-0.08541934690395038,"73":0.10870026592782167,"74":0.024385577625961857,"75":0.04710187682932847,"76":-0.00011062642664074759,"77":0.024811020949746493,"78":0.09899734939541988,"79":0.055961529777465775,"80":0.015240270354774032,"81":0.010111446176660122,"82":0.012826444578724297,"83":0.0750369628456071,"84":-0.074195394032749,"85":-0.025974509755116244,"86":-0.027251465496074257,"87":-0.019362122863209843,"88":0.10116431224436512,"89":-0.01774567088047595,"90":-0.023935867639228253,"91":0.055782080103801465,"92":0.018346473946576458,"93":-0.06335291794940949,"94":-0.034440646071540626,"95":0.11384947209812751,"96":-0.012616164219367548,"97":0.061606919976506115,"98":-0.02440313646348212,"99":-0.03210400069760569,"100":-0.003934767861801714,"101":-0.03523574383706633,"102":-0.08445221468275355,"103":-0.0201726216350647,"104":0.03527837883722655,"105":-0.0004519601305402851,"106":-0.08591452339236492,"107":0.013235947267900762,"108":0.016276385504816162,"109":-0.03235411268432096,"110":-0.004937790250476795,"111":0.07934939999873748,"112":-0.0056470095072747644,"113":0.00027130585954306975,"114":0.027367513319878987,"115":-0.05444759381395421,"116":-0.05248367463706071,"117":0.04721159620067337,"118":0.03534790932042689,"119":0.0450571836763204,"120":-0.027104775499116596,"121":-0.026307381155257815,"122":0.08553779383513856,"123":-0.04790529947710087,"124":-0.07232336353070846,"125":-0.12686319358376813,"126":-0.06684295668473712,"127":0.009243386922847239,"128":-0.0062319925935175454,"129":-0.005500503582600589,"130":-0.059033806191461875,"131":-0.01675588196524715,"132":0.005744599183736312,"133":0.061458281569814345,"134":-0.04751215429519264,"135":-0.03226705222391491,"136":0.0732995327285944,"137":-0.0017464617055489475,"138":0.017564509915607797,"139":0.053875291945243,"140":-0.005387836117521119,"141":0.06612989896706248,"142":0.04541047944562907,"143":-0.025301360957971978,"144":-0.024542464769517675,"145":0.04913814398231039,"146":-0.04135693329414129,"147":0.08651964326264404,"148":0.006621850373340593,"149":0.07556352649292691,"150":0.021798901621163467,"151":-0.007106711776214566,"152":-0.03263436377242486,"153":-0.012246295105177192,"154":0.0832312099864258,"155":0.015773263956231378,"156":-0.004468090002896731,"157":0.04274487466143439,"158":0.07700475024414317,"159":0.009071618146766523,"160":-0.047097125953269814,"161":-0.011767450889852307,"162":0.05056125695068385,"163":0.03113231349427311,"164":0.017136430416825433,"165":0.07043777862473384,"166":-0.007134883554703535,"167":0.04888139888538483,"168":-0.013982151133574688,"169":-0.07001990742281748,"170":-0.035234194978352916,"171":-0.013096457091062616,"172":-0.11157437629960829,"173":-0.08410310132342319,"174":-0.009089745687987354,"175":0.10010932017486042,"176":0.06346373559825849,"177":-0.028179689926757068,"178":-0.021866376407675626,"179":0.044443475946362554,"180":-0.04985902060328013,"181":-0.02556367639563853,"182":-0.028977843814939706,"183":-0.001580231652356818,"184":0.09578251348862386,"185":-0.05805512057666089,"186":-0.12511141147808996,"187":-0.05596257523357808,"188":0.029759082297870786,"189":-0.010505232899481706,"190":-0.05583572663597383,"191":0.1213160941815331,"192":-0.02392268127644632,"193":-0.04469012360347926,"194":0.03512388256063429,"195":-0.07920614224582025,"196":-0.04909686182781612,"197":-0.06903940357324993,"198":-0.11230244228963075,"199":-0.04440706544006614,"200":-0.002961787210753527,"201":0.037387326573366374,"202":0.04222549752232777,"203":0.04782922392894463,"204":0.020686990895998646,"205":0.030495840664455747,"206":-0.05752742122218557,"207":-0.06262866263531743,"208":0.0632284700058469,"209":0.14958807897407528,"210":-0.02250324073247926,"211":-0.02688100830446682,"212":-0.013177731165390026,"213":-0.047135735618863535,"214":-0.12536594144851462,"215":0.06254420034750675,"216":-0.04480138945463255,"217":-0.029175902824712024,"218":0.003824920450481606,"219":0.003399070438369536,"220":-0.04204603714609542,"221":0.012975543264073519,"222":-0.03850216148881021,"223":-0.06270571212893435,"224":0.06509535135478552,"225":-0.03466843684005064,"226":-0.04360143694343353,"227":0.011853055324864387,"228":-0.05346903398128357,"229":-0.016550582932648286,"230":0.06890064538993163,"231":-0.11741665821194906,"232":-0.03586207684281723,"233":-0.03226097442174678,"234":-0.09284326078297343,"235":0.10333074260348303,"236":-0.09651125161526326,"237":-0.004716554332729374,"238":0.03340665514589205,"239":-0.032345085911344364,"240":-0.04278590258434744,"241":-0.09835925980097515,"242":-0.007989274420720244,"243":-0.11372685632083486,"244":-0.07763931455346756,"245":-0.03506137415949067,"246":-0.07924227786259774,"247":0.0023782529869694506,"248":0.07911861092871168,"249":-0.002894174920974684,"250":0.037541431417278295,"251":0.06118012449496775,"252":-0.08797122177421254,"253":-0.014450802267223286,"254":0.0734752212644768,"255":-0.016355075272701153,"256":0.0327323408999958,"257":0.0479425097107064,"258":0.0044906904676191494,"259":0.04200946844611851,"260":-0.027953362028767807,"261":0.02649357751766963,"262":-0.07123162282091566,"263":0.01620358639089179,"264":0.01392672888436806,"265":-0.04192674470221204,"266":-0.01980035632953871,"267":-0.023251020589247096,"268":-0.011834944212948409,"269":-0.0569419705092845,"270":0.03497226606717234,"271":0.06227862841700975,"272":0.001223866422191067,"273":0.009516355585582463,"274":-0.0373573047018905,"275":-0.11011729158531028,"276":-0.0749519002323748,"277":-0.04448532263155685,"278":-0.031894476609979405,"279":-0.07339896237401303,"280":0.008340148226202267,"281":0.06896920668641361,"282":0.03574265732677205,"283":-0.0017814383206593823,"284":-0.07089560936553946,"285":-0.008037851124299514,"286":-0.06320319876710573,"287":-0.023601856879712137,"288":0.08906156791875965,"289":-0.007994323279711751,"290":0.0019893784161332264,"291":-0.03012123983601441,"292":0.017051989278027924,"293":0.012860073046247065,"294":-0.08321338196367345,"295":-0.05087967206405657,"296":-0.031648743063461056,"297":0.10793578480625843,"298":-0.04454641213011553,"299":0.019995434975099764,"300":0.02848597084675502,"301":0.05307762686963101,"302":-0.09315223734404551,"303":0.0006354562255928305,"304":0.10698283203704048,"305":0.0769068855837976,"306":-0.05059173111295831,"307":-0.04250125666718496,"308":0.05720035101582418,"309":-0.042061297085727985,"310":0.07976135182733592,"311":-0.05309820016993229,"312":-0.07115352898093802,"313":-0.05119865695236594,"314":0.024672708260197563,"315":-0.11753741979400228,"316":-0.009858993908697761,"317":0.03209621545900774,"318":-0.012256428549458423,"319":-0.059788189929033314,"320":-0.11572690068655833,"321":-0.03774632510708666,"322":0.013656952859981381,"323":-0.09402757667029503,"324":0.022931041677254974,"325":-0.041692577636513115,"326":-0.0925522642625115,"327":0.033456687907758964,"328":0.044449802631588056,"329":0.10367142055902537,"330":0.09735839771965335,"331":-0.0743952226919817,"332":0.0734909296131812,"333":0.00018495333433144923,"334":-0.019577978640814234,"335":-0.05342223976183989,"336":-0.09683604148136653,"337":0.019768374966002197,"338":-0.02530559504009982,"339":0.019600099871964503,"340":0.04621098343080777,"341":0.08248034194825404,"342":0.0035284870760358446,"343":-0.020894367653616904,"344":-0.09055452766814125,"345":0.016521645625161854,"346":-0.08103761420871201,"347":-0.011911619675791059,"348":0.07104391540845523,"349":-0.014417293796915634,"350":-0.08226200710330411,"351":-0.039566356274150144,"352":-0.037340308732518944,"353":0.08080183152675718,"354":-0.08429135146588701,"355":-0.1424201161489906,"356":-0.021475807802016685,"357":-0.08475855789548829,"358":-0.16559889501564581,"359":-0.15727898618292188,"360":-0.07671254840716721,"361":-0.04785287238781628,"362":-0.051048976205671184,"363":0.014467320364147966,"364":-0.04550354203460849,"365":0.06137551826736485,"366":-0.1295955997188136,"367":-0.19006977640343092,"368":0.02765646124930772,"369":-0.036675572841806704,"370":-0.05206006824088207,"371":0.11038741622086598,"372":-0.08727829390292506,"373":-0.015172760594873498,"374":-0.03313311861903713,"375":-0.13339950234717324,"376":0.014010127068291753,"377":-0.0036536389076549697,"378":-0.018373282439370996,"379":-0.007885322429220892,"380":0.0071262000412947715,"381":0.07289257096756871,"382":-0.06046424410861021,"383":-0.07516548291501181,"384":0.01623979379876305,"385":-0.004952876374310328,"386":0.08798192938038946,"387":0.009833979887404507,"388":0.0013521053973623123,"389":0.08645537509228737,"390":0.05865504183625636,"391":0.01797567871148112,"392":-0.067931702550536,"393":0.0013729622199193914,"394":-0.044885398451536426,"395":-0.03495239656565745,"396":0.01664729349164255,"397":-0.10550824236024017,"398":-0.026741433607660972,"399":-0.015659724065289808}},{"sx":5,"sy":5,"depth":16,"w":{"0":-0.008892071514140006,"1":0.08695058771577767,"2":-0.03709866531361986,"3":-0.0015531287040952781,"4":0.0656324646944893,"5":-0.09165693948248194,"6":0.023326741318422693,"7":-0.06962369333990254,"8":0.0870328125740614,"9":-0.04271861855932267,"10":-0.03398157124150501,"11":0.13510559164745992,"12":0.016394982379390074,"13":0.019302334444754835,"14":-0.051149395407210904,"15":-0.050893414537178244,"16":0.024448408143007798,"17":-0.03147406686127265,"18":-0.05924570859128224,"19":-0.018118432977232136,"20":-0.13205946557594517,"21":0.026212132302256663,"22":0.02024903099548979,"23":-0.1337151757403525,"24":0.021606439230906275,"25":-0.006733810380955438,"26":-0.11264343489208382,"27":0.0795215940876116,"28":0.031444823964121266,"29":-0.008943887516242545,"30":0.07009642574213587,"31":0.04640948965708892,"32":-0.015876009542853682,"33":-0.06768991309938258,"34":-0.03033219400327981,"35":0.02049011560319807,"36":-0.005597622957031499,"37":0.0028276501585801175,"38":0.006631432121767881,"39":-0.021542934397027702,"40":0.022468018389785058,"41":-0.010349604319324678,"42":-0.002306878609889203,"43":0.02884049212304899,"44":-0.003240846101157793,"45":0.0026619839256286316,"46":-0.08523085806608864,"47":-0.053515401250667644,"48":-0.036805006301972136,"49":-0.005706693489452811,"50":0.024781529570837048,"51":0.0677410195585352,"52":-0.024317789580577856,"53":0.0407036780280675,"54":0.06840162014833445,"55":-0.05714048946791029,"56":-0.00605744332186057,"57":-0.09389042664258758,"58":-0.03516753425567155,"59":0.004636261828965934,"60":-0.007975334297711542,"61":0.012645239304888896,"62":-0.019007450615870284,"63":-0.08203644796893658,"64":0.011571761354340383,"65":-0.009598711475382011,"66":-0.018024545921176926,"67":-0.02493521152183949,"68":-0.01581882693292308,"69":0.010669018444880078,"70":-0.008144760751159776,"71":-0.0274834579207352,"72":-0.005476969815229697,"73":0.0011885583191735814,"74":-0.04879366874851382,"75":-0.032975825595172356,"76":0.021193367145481902,"77":-0.0016564416840645314,"78":0.0071621301117312025,"79":-0.0417758627732904,"80":0.054706215767451785,"81":0.061347865790752285,"82":-0.057589451597461226,"83":0.06673782962538269,"84":0.07663428946529639,"85":-0.02159373688122402,